-3.09386,0.174879
-1.86495,-0.0636245
-0.648068,-0.242428
0.439613,-0.320724
1.2908,-0.188241
1.23347,0.00595605
0.287382,0.154055
-0.486976,0.190493
-0.365669,0.0792023
0.533496,-0.16701
1.02634,-0.139679
0.688323,0.0272858
0.0677137,0.147849
-0.273096,0.174523
-0.100689,0.0923368
0.381976,-0.0803365
0.479353,-0.0839097
0.217477,-0.0250774
0.0987541,0.00952248
0.138106,0.0172586
0.178547,0.0198445
0.185854,0.0205639
0.173618,0.0150884
0.138397,0.0196373
0.117873,0.0225833
0.10866,0.034466
0.0953384,0.0374569
0.0980316,0.0364782
0.104117,0.0235963
0.116247,0.0119167
0.125076,0.011948
0.128256,0.0126954
0.129696,0.0157565
0.12861,0.0177823
0.128507,0.0199055
0.129979,0.0229376
0.134505,0.0240163
0.142062,0.0205726
0.155225,0.0160531
0.169221,0.0109356
0.173311,0.0089251
0.170406,0.0128936
0.160405,0.0168447
0.144669,0.0204613
0.134953,0.0212143
0.134369,0.0234432
0.135853,0.0280509
0.142703,0.0307441
0.147724,0.02811
0.149559,0.0254276
0.146448,0.0201544
0.137795,0.0191165
0.128218,0.0166376
0.121395,0.0131063
0.116233,0.0102956
0.11492,0.00648496
0.117924,0.00465612
0.12514,0.00308
0.132116,-0.00261343
0.140271,-0.00204603
0.14843,-0.00541836
0.153163,-0.00531575
0.156948,-0.0117111
0.15155,-0.0177596
0.144138,-0.0153523
0.134553,-0.00834755
0.130756,-0.00420893
0.129036,-0.00283698
0.128616,-0.0047111
0.127398,-0.00649496
0.125282,-0.0100368
0.121597,-0.0122095
0.11692,-0.0158556
0.115949,-0.017413
0.116611,-0.0175365
0.120997,-0.0192193
0.122885,-0.0202199
0.130065,-0.0220357
0.136018,-0.0188522
0.141735,-0.0148807
0.143382,-0.0115439
0.144626,-0.0121928
0.135869,-0.00955463
0.126937,-0.0062394
0.124848,-0.00408245
0.126129,-0.0033047
0.124539,-0.00500032
0.121012,-0.00643131
0.119351,-0.00911698
0.117246,-0.012178
0.119108,-0.0154025
0.117284,-0.0171485
0.121648,-0.0177289
0.120509,-0.018785
0.121381,-0.0166161
0.121255,-0.0233329
0.12271,-0.0229452
0.126654,-0.0266512
0.129271,-0.0301308
0.131746,-0.0220617
0.125121,-0.0327665
0.118056,-0.0426707
0.114553,-0.0445049
0.122465,-0.0512139
0.132019,-0.0461882
0.130996,-0.0443897
0.134488,-0.0461435
0.127733,-0.0583897
0.125494,-0.0621472
0.121627,-0.0712469
0.112581,-0.0614834
0.107285,-0.0464483
0.106897,-0.035702
0.106884,-0.0292206
0.109025,-0.0209717
0.108323,-0.0165502
0.106097,-0.0112422
0.09991,-0.00125943
0.0972389,0.0112629
0.0928044,0.0312396
0.0880067,0.0523426
0.089628,0.0689417
0.0897715,0.113145
0.0937872,0.151506
0.0724544,0.162465
0.0402511,0.154765
-0.0248402,0.160804
-0.055129,0.091608
-0.0513758,-0.00974095
-0.0149277,-0.0449298
0.0227545,-0.0655542
0.0264222,-0.07166
0.042699,-0.0697779
0.0676658,-0.066212
0.081009,-0.0556256
0.0974223,-0.0504546
0.106574,-0.0451093
0.113268,-0.0343313
0.121628,-0.0236512
0.125054,-0.0105143
0.128021,-0.00100521
0.130091,0.00749861
0.133313,0.0150085
0.159,0.0201639
0.182117,0.0264981
0.19563,0.0282326
0.200857,0.0238289
0.19294,0.0254882
0.217749,0.00530558
0.271183,-0.0170501
0.326624,-0.0434931
0.375024,-0.0711829
0.458234,-0.0941232
0.557316,-0.105116
0.65133,-0.102698
0.665095,-0.0810889
0.693199,-0.0695572
0.806355,-0.0793234
0.881458,-0.0848691
0.833862,-0.062306
0.812147,-0.0408693
0.832743,-0.032288
0.816885,-0.0208157
0.757418,-0.0082961
0.625628,0.0123244
0.486434,0.039747
0.347754,0.0719775
0.26166,0.0892596
0.14687,0.0873235
-0.0450747,0.0806866
-0.207762,0.077888
-0.375655,0.0838458
-0.43174,0.0708927
-0.40016,0.0401943
-0.469496,0.0173983
-0.669522,0.0281633
-0.803627,0.0306144
-0.804257,0.0217639
-0.823049,0.00796048
-0.89796,0.00466589
-0.987137,0.00313145
-1.00997,0.00469049
-0.989362,0.00937726
-0.953065,0.0135462
-0.950561,0.0283137
-0.944206,0.0443193
-0.893444,0.0629499
-0.835083,0.0683321
-0.787281,0.0815062
-0.718727,0.0816697
-0.619172,0.0736704
-0.544652,0.0642221
-0.467892,0.0581159
-0.30322,0.0361303
-0.172273,0.0267669
-0.0884783,0.0237891
-0.0190859,0.0205884
0.0600859,0.00690132
0.183513,-0.0140439
0.395591,-0.0496332
0.634302,-0.0878171
0.793006,-0.11701
0.768792,-0.0922641
0.718902,-0.0595612
0.830713,-0.0739259
1.01802,-0.103493
1.09568,-0.095336
1.03403,-0.0650846
1.01378,-0.0420965
1.12974,-0.060416
1.19874,-0.069707
1.14344,-0.065763
1.08765,-0.0483119
1.09521,-0.0444571
1.0844,-0.033646
1.02992,-0.0244094
0.958802,-0.0246185
0.870973,-0.0226132
0.797696,-0.0204962
0.714792,-0.0154849
0.621282,-0.00720104
0.52039,-0.00402384
0.382664,0.00324008
0.286822,-0.00223562
0.173281,0.00401038
0.0624857,0.00876387
-0.0710376,0.018355
-0.217727,0.024
-0.433227,0.0459407
-0.494584,0.0502611
-0.436798,0.0356763
-0.428807,0.0244852
-0.567646,0.0350044
-0.757419,0.0547306
-0.869975,0.0684924
-0.780068,0.0567444
-0.739679,0.0401452
-0.83755,0.0500188
-0.957417,0.0717497
-0.923116,0.0754202
-0.796245,0.0514472
-0.802988,0.0508791
-0.872357,0.0641448
-0.83461,0.0654257
-0.708179,0.0474713
-0.640575,0.0460569
-0.611599,0.0475807
-0.570794,0.0517504
-0.448101,0.0369821
-0.339049,0.0254732
-0.208615,0.00869203
-0.142766,0.00439431
-0.08589,-0.00255231
0.00299824,-0.0151145
0.0945781,-0.0251461
0.22568,-0.0443492
0.449795,-0.0726747
0.660774,-0.0922034
0.743724,-0.0906714
0.649103,-0.0460584
0.625635,-0.0310441
0.789533,-0.0521296
0.997025,-0.0803011
0.956037,-0.0644576
0.856271,-0.034638
0.957497,-0.046237
1.07156,-0.0632961
1.06185,-0.0663456
0.975562,-0.0557319
0.986823,-0.0629657
0.990164,-0.0568808
0.970801,-0.0554945
0.892839,-0.0451701
0.82478,-0.0475298
0.750943,-0.0463177
0.721885,-0.043619
0.651426,-0.0339251
0.509185,-0.0152223
0.410139,-0.00757007
0.354022,-0.00817673
0.25849,-0.000822993
0.110065,0.0180591
-0.0241281,0.036036
-0.102253,0.0437398
-0.285632,0.0595812
-0.456487,0.0757262
-0.486072,0.0737181
-0.329923,0.0372902
-0.341027,0.0166916
-0.614865,0.0406165
-0.779394,0.0611128
-0.670137,0.0491139
-0.561114,0.0142688
-0.709188,0.0295068
-0.907354,0.0506722
-0.864192,0.0525992
-0.667371,0.0209108
-0.701578,0.0361663
-0.85005,0.0638509
-0.800017,0.0628289
-0.599851,0.0378752
-0.566074,0.0461458
-0.657757,0.0743418
-0.580019,0.0665248
-0.406654,0.0416339
-0.313721,0.0406011
-0.313951,0.0502272
-0.251902,0.0480747
-0.0857566,0.0274872
0.034942,0.0089311
0.0149602,0.00942814
0.067607,-0.00425432
0.230105,-0.0289704
0.403079,-0.0547036
0.575632,-0.0806964
0.576138,-0.0810752
0.52473,-0.0563579
0.646646,-0.0699962
0.827402,-0.0916464
0.802272,-0.070011
0.734308,-0.0413862
0.849377,-0.054718
0.959428,-0.0690543
0.916022,-0.0536267
0.855676,-0.0424148
0.885518,-0.044311
0.943232,-0.0516866
0.874958,-0.0383879
0.80358,-0.0284833
0.779974,-0.0329094
0.765401,-0.0392271
0.694353,-0.0351573
0.584385,-0.0217972
0.540983,-0.0189623
0.484775,-0.0192988
0.368212,-0.0111436
0.276181,-0.00857371
0.207939,-0.00481834
0.126873,0.000168404
0.0150502,0.0107588
-0.0810777,0.0143796
-0.249315,0.031718
-0.405192,0.0480379
-0.40817,0.0514074
-0.282984,0.0247287
-0.359374,0.028553
-0.563392,0.0534346
-0.609519,0.0650429
-0.520118,0.0489873
-0.551248,0.0470013
-0.690648,0.0568901
-0.751626,0.0620261
-0.642781,0.044663
-0.60071,0.0393898
-0.692274,0.0545669
-0.71905,0.0626623
-0.645897,0.0508281
-0.543424,0.0382462
-0.492554,0.0391872
-0.510449,0.0522806
-0.450541,0.0507452
-0.350172,0.0370155
-0.307458,0.0359103
-0.225501,0.0285172
-0.110937,0.0164529
-0.070882,0.0141319
-0.106892,0.02344
-0.0155018,0.0159186
0.17987,-0.0063513
0.341,-0.02743
0.549397,-0.0541402
0.739261,-0.0827908
0.768541,-0.0813638
0.708791,-0.0554198
0.782346,-0.0536926
1.00534,-0.0800383
1.11539,-0.0865521
1.10556,-0.0661582
1.08851,-0.0477142
1.17721,-0.058071
1.22771,-0.0687365
1.14819,-0.06315
1.04465,-0.0546073
1.00936,-0.0570037
0.958298,-0.0468229
0.84089,-0.0336033
0.719856,-0.0221668
0.628072,-0.0248592
0.530059,-0.0206304
0.4232,-0.0080585
0.292547,0.0060103
0.14925,0.0266855
0.0440721,0.037532
-0.0733511,0.0501021
-0.246354,0.0648315
-0.461167,0.0874343
-0.510119,0.0816193
-0.454035,0.04469
-0.52988,0.0264178
-0.760235,0.0489123
-0.86282,0.0603662
-0.805857,0.0492078
-0.790557,0.0311437
-0.935804,0.0413157
-1.0869,0.0566783
-1.00797,0.0461123
-0.888544,0.0315724
-0.93813,0.0451637
-1.06476,0.071381
-0.993297,0.0646139
-0.809547,0.0413966
-0.778405,0.0543244
-0.852873,0.0804358
-0.762215,0.0807235
-0.540803,0.0454235
-0.454744,0.0428722
-0.458615,0.0529975
-0.336501,0.039841
-0.150223,0.018467
-0.0102782,0.0056175
0.0238555,0.00752036
0.0702931,0.00193406
0.252852,-0.0241364
0.459699,-0.0527697
0.649724,-0.0859333
0.663249,-0.0865194
0.6288,-0.0587984
0.780551,-0.0804608
0.962369,-0.0999596
0.959887,-0.0781411
0.932057,-0.054756
0.999036,-0.062916
1.1049,-0.0752002
1.10059,-0.0639616
1.05869,-0.0510786
1.07706,-0.0554702
1.10482,-0.0607629
1.05647,-0.0439578
0.983898,-0.0321878
0.94425,-0.0297084
0.910625,-0.0353309
0.82106,-0.0273867
0.730311,-0.0212267
0.629727,-0.00856445
0.562768,-0.00805289
0.444059,-0.001666
0.315784,0.00368278
0.218173,0.0106507
0.131681,0.0181995
0.0034954,0.0306559
-0.113617,0.0364143
-0.313067,0.0538649
-0.486175,0.0646216
-0.520617,0.0613205
-0.414379,0.0295411
-0.493248,0.0284168
-0.718186,0.0503192
-0.816753,0.0654619
-0.736637,0.0532565
-0.734207,0.0417423
-0.888865,0.0570707
-0.945407,0.0595128
-0.866661,0.052307
-0.841235,0.0499356
-0.916129,0.0649242
-0.901781,0.0652411
-0.807226,0.0511278
-0.747949,0.052304
-0.747624,0.065013
-0.689074,0.0622536
-0.596839,0.0525779
-0.497673,0.0422485
-0.421846,0.0398948
-0.357632,0.0367818
-0.228284,0.0275386
-0.0871528,0.0094694
-0.0124295,0.00433763
0.00522027,-0.00214088
0.08448,-0.0163202
0.274244,-0.0447445
0.491385,-0.0749263
0.636606,-0.0955898
0.601889,-0.0686675
0.626194,-0.0610466
0.713521,-0.063693
0.820171,-0.0751693
0.881126,-0.0700191
0.88234,-0.0569771
0.915591,-0.0469521
0.959902,-0.0506005
0.98203,-0.0498065
0.989976,-0.0591457
0.967422,-0.0538733
0.959696,-0.0551817
0.930157,-0.0427717
0.889872,-0.0429711
0.828711,-0.0412
0.785111,-0.0479855
0.709452,-0.0446177
0.64272,-0.0389079
0.550421,-0.0301273
0.448951,-0.0189616
0.379859,-0.0200494
0.274914,-0.014815
0.156437,-0.00590616
0.054875,0.00831272
-0.0106695,0.0134916
-0.148577,0.0293341
-0.333564,0.0491519
-0.45286,0.0632337
-0.417257,0.0559781
-0.364802,0.0367871
-0.509018,0.0491778
-0.678637,0.0653668
-0.696264,0.0630103
-0.646584,0.0430068
-0.676165,0.0410637
-0.778959,0.0492815
-0.859083,0.0600304
-0.799589,0.0535078
-0.697824,0.0354188
-0.739625,0.0442851
-0.826253,0.058268
-0.772235,0.0565109
-0.599647,0.0329695
-0.573499,0.0410357
-0.62932,0.0596816
-0.55769,0.0523133
-0.406234,0.0348716
-0.297067,0.0323436
-0.268703,0.0375737
-0.226208,0.0379219
-0.0886922,0.0231962
0.0456819,0.00481082
0.0650692,0.00433969
0.130998,-0.00554973
0.310419,-0.0269583
0.47369,-0.0492513
0.523228,-0.0618447
0.493503,-0.0597703
0.533314,-0.0580288
0.673509,-0.0795159
0.755673,-0.0820904
0.743345,-0.0627259
0.759198,-0.0477704
0.830338,-0.0602645
0.855911,-0.0603643
0.871321,-0.0663628
0.84398,-0.0593331
0.851457,-0.0550941
0.855632,-0.0480032
0.819069,-0.0356254
0.790699,-0.0365419
0.730425,-0.0312525
0.693454,-0.0308398
0.628549,-0.0251953
0.539573,-0.0136408
0.482618,-0.0091902
0.401716,-0.00640624
0.286652,0.00137166
0.197572,0.00560678
0.110614,0.0131282
0.03159,0.0198687
-0.0438805,0.0242123
-0.158595,0.0286367
-0.326751,0.0430668
-0.445029,0.0495527
-0.49627,0.0500155
-0.469135,0.0353637
-0.501657,0.0355801
-0.618132,0.0482125
-0.717533,0.0629618
-0.741492,0.0639917
-0.724664,0.05201
-0.720775,0.039869
-0.797932,0.0518159
-0.851949,0.0663343
-0.813067,0.0583332
-0.770888,0.0504981
-0.749776,0.045143
-0.762329,0.0523378
-0.704785,0.050869
-0.619403,0.0435906
-0.603384,0.0486408
-0.559752,0.0496813
-0.463409,0.0306902
-0.40588,0.030096
-0.322124,0.0231942
-0.218796,0.015069
-0.135628,0.0068683
-0.0735346,0.00327454
-0.0146882,-0.00446178
0.062329,-0.0132887
0.213067,-0.0306201
0.381665,-0.0512813
0.466421,-0.0671941
0.416357,-0.0493944
0.456329,-0.0545135
0.542177,-0.0628805
0.598381,-0.0646791
0.648855,-0.0607048
0.67234,-0.0583744
0.672151,-0.0457948
0.731353,-0.0503808
0.764965,-0.0549215
0.733793,-0.0516144
0.734724,-0.0507903
0.72937,-0.0501427
0.69461,-0.0367615
0.675575,-0.0376274
0.622269,-0.0364206
0.564787,-0.0333347
0.538497,-0.0344738
0.463354,-0.0263583
0.380228,-0.0156394
0.326696,-0.0123083
0.272598,-0.0114879
0.168608,-0.000724691
0.0672335,0.0096513
0.0152026,0.0194279
-0.0285908,0.0236163
-0.155118,0.0353242
-0.29336,0.0480778
-0.402558,0.0572543
-0.416815,0.0550914
-0.380978,0.0413584
-0.433182,0.0396621
-0.552947,0.0578804
-0.622355,0.0706709
-0.601442,0.0611465
-0.569833,0.0370677
-0.635795,0.0396914
-0.707663,0.0490887
-0.689229,0.0536125
-0.639523,0.0457332
-0.624137,0.0382764
-0.641541,0.0322674
-0.647729,0.0330288
-0.57513,0.0261074
-0.487253,0.0178127
-0.474674,0.0176297
-0.472933,0.0215495
-0.381447,0.0109825
-0.278323,0.0029449
-0.233461,0.0057689
-0.203257,0.00986931
-0.126696,0.00649193
-0.0308604,-0.00131508
0.0106008,0.00329607
0.0893499,0.00296608
0.21352,-0.00621495
0.341812,-0.018815
0.378439,-0.0228806
0.332172,-0.0152762
0.353777,-0.0188452
0.44223,-0.0342355
0.487898,-0.0417867
0.492008,-0.0447242
0.505142,-0.0477257
0.560164,-0.060341
0.587749,-0.0659475
0.564772,-0.0605472
0.553926,-0.0604006
0.582021,-0.0643697
0.564444,-0.0574671
0.511225,-0.041705
0.492152,-0.033532
0.486615,-0.0332619
0.435895,-0.0233851
0.381986,-0.00900195
0.353487,0.00402682
0.314378,0.0203428
0.245606,0.0351898
0.166633,0.0458974
0.103553,0.0493783
0.0696888,0.0489141
0.0489493,0.0381315
-0.026416,0.0313381
-0.112661,0.019586
-0.227827,0.01653
-0.330551,0.0130399
-0.346957,0.00192729
-0.271199,-0.0215848
-0.259706,-0.032541
-0.385805,-0.0124614
-0.455375,0.00884799
-0.421009,0.0213986
-0.358835,0.0263711
-0.360508,0.0405122
-0.426969,0.0629445
-0.480993,0.079586
-0.460145,0.0722975
-0.387952,0.046208
-0.339999,0.0286993
-0.373379,0.0279347
-0.418107,0.032335
-0.366587,0.0241951
-0.286475,0.00802567
-0.23306,-0.00734085
-0.199905,-0.0182426
-0.190517,-0.0250346
-0.160871,-0.0319915
-0.121442,-0.0383083
-0.101081,-0.0413832
-0.0863283,-0.0369399
-0.0328758,-0.0358578
0.0275999,-0.0273392
0.105461,-0.0224776
0.208901,-0.0194725
0.295887,-0.0215806
0.268283,-0.0101635
0.221572,0.00414178
0.235657,0.00860994
0.261046,0.00859783
0.273634,0.0099074
0.282168,0.00787861
0.291378,0.00219472
0.307409,-0.00980876
0.324438,-0.0267892
0.328072,-0.0426842
0.311953,-0.0528452
0.291923,-0.0582125
0.271022,-0.0555332
0.254742,-0.0519235
0.238961,-0.0515521
0.227209,-0.0480537
0.204293,-0.043043
0.17291,-0.0319876
0.142707,-0.0201202
0.139414,-0.0115717
0.142812,-0.00468433
0.0997161,0.00896548
0.0379935,0.02479
-0.00219806,0.0386914
-0.0481035,0.0502369
-0.120758,0.0600057
-0.190801,0.0628081
-0.23068,0.0610584
-0.209383,0.0455984
-0.14727,0.0250107
-0.112117,0.00645346
-0.219483,0.00901659
-0.339476,0.0139745
-0.287581,0.00294665
-0.143402,-0.0217571
-0.164861,-0.0266781
-0.314981,-0.0130776
-0.333437,-0.00651649
-0.16753,-0.0217897
-0.101884,-0.028461
-0.222465,-0.00945696
-0.301006,0.0109283
-0.18979,0.00944809
-0.0885328,0.0101537
-0.115897,0.021849
-0.191053,0.0400667
-0.202815,0.0492384
-0.0855612,0.037135
0.0283873,0.0235439
0.0263092,0.0196478
0.0149422,0.0211599
0.0643876,0.0133722
0.088421,0.00587478
0.12043,-0.00181766
0.146482,-0.014964
0.144541,-0.0237196
0.134329,-0.029071
0.141242,-0.0382442
0.163268,-0.0432275
0.170943,-0.0486725
0.159257,-0.0509878
0.158336,-0.0449929
0.167244,-0.0383717
0.158871,-0.0314347
0.144965,-0.0245804
0.149965,-0.0217392
0.164329,-0.0179451
0.154886,-0.00971803
0.130265,0.00146124
0.127159,0.00616052
0.142475,0.00638222
0.129349,0.0102948
0.0991664,0.0142134
0.0856684,0.0159761
0.0811553,0.0177349
0.0679752,0.0147186
0.0495871,0.00942826
0.0278613,0.00687041
0.00550639,0.00343421
-0.0211265,-0.00166695
-0.0521627,-0.002058
-0.0863539,-0.00552629
-0.12258,-0.00715758
-0.139332,-0.00637515
-0.130447,-0.00613999
-0.114322,-0.00575329
-0.0988727,-0.00494686
-0.086798,-0.00284015
-0.0895703,0.00151761
-0.091433,0.00544079
-0.0847269,0.011941
-0.0762572,0.0186175
-0.0765898,0.0247471
-0.0812565,0.0313837
-0.0770464,0.0322768
-0.0663539,0.0300533
-0.0501305,0.0256537
-0.0289409,0.0226895
-0.00885189,0.0173098
0.00491774,0.0134739
0.0165948,0.00668019
0.0295645,-0.00263908
0.0373566,-0.0102455
0.0468784,-0.0139863
0.0554093,-0.0169759
0.0631663,-0.0179981
0.0688121,-0.0180764
0.067897,-0.0172035
0.0679079,-0.0155747
0.0583191,-0.00957649
0.0407626,-0.00420654
0.0226465,0.00237661
0.00746274,0.00598028
-0.00835762,0.00886745
-0.0179199,0.0102076
-0.0304634,0.00911684
-0.0352303,0.00921208
-0.0408838,0.00341711
-0.0442304,-0.00378495
-0.0451088,-0.00841147
-0.0448155,-0.0142193
-0.0443095,-0.0181286
-0.0363268,-0.0260663
-0.0308679,-0.028886
-0.0275132,-0.0241995
-0.0252248,-0.0188138
-0.0298208,-0.0106505
-0.0323679,0.00204294
-0.0404168,0.0214911
-0.0546988,0.0377559
-0.0672635,0.050726
-0.0816465,0.0569488
-0.0921395,0.0537215
-0.0864996,0.0356238
-0.0711539,0.0113919
-0.0485722,-0.0134626
-0.0172565,-0.0441137
0.0120432,-0.0767093
0.0184728,-0.101944
0.0361482,-0.104189
0.047691,-0.0925874
0.0614011,-0.0765594
0.0755792,-0.064203
0.0881941,-0.0599605
0.0961462,-0.0502723
0.0962944,-0.0388327
0.0849032,-0.0233719
0.0732973,-0.00997544
0.0603195,0.00796151
0.0446284,0.0316591
0.0263875,0.0577454
0.00787569,0.0785243
-0.0061337,0.0887866
-0.0214883,0.085754
-0.0320214,0.0799032
-0.0422889,0.0656623
-0.0525469,0.0541033
-0.0634613,0.0462951
-0.0724038,0.0378303
-0.0754989,0.0302558
-0.0693661,0.0195734
-0.0567403,0.0062021
-0.0407082,-0.0101468
-0.0229688,-0.0266616
-0.00472558,-0.0455242
0.00870346,-0.0615955
0.0184819,-0.0671117
0.0237734,-0.0647784
0.0288934,-0.056299
0.0339946,-0.0498779
0.0344831,-0.0377747
0.0357631,-0.0275407
0.0362864,-0.0199644
0.0306694,-0.0159937
0.0241449,-0.00731154
0.0170056,0.00179847
0.0071599,0.0127063
0.00114961,0.0188621
-0.00279658,0.0221405
-0.00138418,0.0239677
0.000378836,0.026283
0.00536676,0.0257128
0.0108415,0.0228507
0.0119508,0.0190234
0.0128924,0.015593
0.0126814,0.00825899
0.0134149,0.00083322
0.0138097,-0.00916826
0.0121787,-0.0196937
0.00831034,-0.030999
0.00154247,-0.0411673
-0.00467592,-0.0474278
-0.0114323,-0.0514794
-0.0181435,-0.0491067
-0.0242155,-0.0444172
-0.0286009,-0.03694
-0.0281804,-0.0308668
-0.0320038,-0.0235741
-0.0330157,-0.0107616
-0.0262873,0.00456138
-0.0345399,0.0253104
-0.0248912,0.038157
-0.0114844,0.0530947
0.00970724,0.0609576
0.030508,0.0616977
0.0444217,0.0587583
0.0483844,0.0568268
0.0455003,0.0427143
0.0404264,0.0278612
0.0308892,0.0214238
0.0220511,0.0119256
0.0162022,0.00234547
0.0174691,-0.0107861
0.0148984,-0.0223714
0.0125813,-0.0348753
0.00744949,-0.0402775
0.00172535,-0.0422353
-0.00911527,-0.0405824
-0.0175242,-0.0338135
-0.0249163,-0.0242705
-0.0265338,-0.0114243
-0.0239447,0.00210954
-0.0169418,0.0132858
-0.00926107,0.0284703
0.00113936,0.0418407
0.00850351,0.0559593
0.0158005,0.0680318
0.021725,0.0737323
0.026903,0.0648532
0.0287295,0.0523516
0.029083,0.0450636
0.0337387,0.0385317
0.0425432,0.0258199
0.0554087,0.00741748
0.0645775,-0.0148501
0.0588414,-0.031834
0.0438815,-0.0515843
0.0239819,-0.0655614
0.00982813,-0.078268
-0.00425856,-0.0744655
-0.0191463,-0.0689293
-0.0363158,-0.0599154
-0.0469286,-0.0531957
-0.0604542,-0.0456602
-0.0730615,-0.0302195
-0.0823067,-0.0167207
-0.0844642,-0.0032798
-0.0772888,0.00982591
-0.0646591,0.0234293
-0.0534253,0.0389568
-0.0431563,0.0548453
-0.0249031,0.0619167
-0.0115987,0.0625219
-0.00352893,0.0538659
0.00161193,0.0445042
0.00314647,0.0367068
-0.00191406,0.0240412
-0.0135357,0.0154079
-0.0304806,0.00834966
-0.0411474,-0.00348476
-0.0437834,-0.02021
-0.0338921,-0.0375169
-0.0071588,-0.0573356
0.0130427,-0.0674578
0.0221662,-0.0670707
0.0383396,-0.0579058
0.0505181,-0.0474213
0.0636615,-0.0417118
0.0747865,-0.0317955
0.0855342,-0.0206821
0.089478,-0.012751
0.0905341,-0.00544449
0.069991,0.00346973
0.0467919,0.0120685
0.0243349,0.0154737
0.00840033,0.0186897
-0.00796542,0.0179673
-0.0216025,0.0116183
-0.0250095,0.00681194
-0.0316448,0.00163394
-0.0370715,-0.00351326
-0.0416889,-0.00615425
-0.048961,-0.00517569
-0.0570318,-0.00154302
-0.0608764,0.00237364
-0.064194,0.00837815
-0.0599314,0.014007
-0.0495773,0.0228636
-0.0373308,0.028893
-0.0236938,0.0365683
-0.0144537,0.0471991
-0.0130185,0.0638595
-0.0095984,0.0804379
-0.00716807,0.0900231
-0.000917359,0.0879725
0.0121357,0.0801942
0.0312527,0.0777296
0.0541136,0.0798877
0.0753538,0.0880947
0.0972093,0.0862762
0.110817,0.0880457
0.121252,0.0889402
0.106186,0.0917658
0.0874755,0.088892
0.0709632,0.0887747
0.0585254,0.0861465
0.0462513,0.0747104
0.024242,0.0720086
0.0135969,0.0642078
-0.00397873,0.06098
-0.0149839,0.0435492
-0.033359,0.025176
-0.0569781,-0.000302347
-0.0820632,-0.0320898
-0.113177,-0.0709357
-0.123118,-0.108176
-0.11197,-0.131574
-0.100574,-0.104425
-0.0777983,-0.0750325
-0.0372464,-0.0801212
0.00648645,-0.087895
0.0227595,-0.0806229
0.0473412,-0.079826
0.0668314,-0.0841546
0.0851287,-0.0823349
0.086938,-0.0671435
0.0896689,-0.0502253
0.0891074,-0.036508
0.0892158,-0.0277642
0.0920242,-0.0261648
0.0981874,-0.0216431
0.096235,-0.0123726
0.0823678,-0.00017483
0.0813889,0.00919237
0.0711032,0.0214146
0.0623899,0.0323349
0.0578195,0.0408882
0.0517035,0.049933
0.0429588,0.0537503
0.0338362,0.0472925
0.0245591,0.0310008
0.00792279,0.0222755
-0.00078711,0.00545893
-0.0158657,-0.00283848
-0.0238402,-0.0137891
-0.0316064,-0.023019
-0.0229726,-0.0353805
-0.0273507,-0.0462152
-0.00815829,-0.051558
-0.0228784,-0.0476216
-0.0100109,-0.0483476
-0.00922565,-0.0461484
0.00114625,-0.0387911
0.0111759,-0.0379552
0.0121778,-0.0380574
0.0111538,-0.0376349
0.00535533,-0.0373124
-0.0065774,-0.0372962
-0.0125065,-0.0337632
-0.0195952,-0.0280914
-0.022841,-0.0252791
-0.0258311,-0.0180518
-0.0320961,-0.0196824
-0.0401527,-0.0240684
-0.0414481,-0.0323182
-0.0437022,-0.0348521
-0.0427784,-0.0284918
-0.0578847,-0.036251
-0.0524322,-0.049372
-0.0450057,-0.0623117
-0.0220536,-0.0720952
-0.00492189,-0.0631698
0.00639759,-0.066137
0.0235087,-0.074473
0.0221676,-0.0759178
0.033657,-0.0603052
0.031867,-0.0428608
0.0555971,-0.0431389
0.0472306,-0.0336337
0.0537101,-0.033732
0.0542248,-0.0213339
0.0403138,-0.000106803
0.0236453,0.0169447
-0.00470654,0.0298318
-0.0274256,0.0367158
-0.0601319,0.0447429
-0.0803422,0.0500589
-0.0926961,0.0587588
-0.0863615,0.0596507
-0.0759688,0.0517847
-0.0717407,0.0386971
-0.0675898,0.024728
-0.07362,0.00644662
-0.0910738,-0.0114343
-0.115047,-0.0340016
-0.126471,-0.0588079
-0.0948777,-0.0809433
-0.0318175,-0.0898943
-0.0422823,-0.0618133
-0.0599846,-0.0230564
-0.0475773,-0.00508436
-0.0313431,0.0185844
-0.0182659,0.0381015
0.00110593,0.0762671
0.0241866,0.108545
0.0460692,0.128583
0.0841299,0.11117
0.117503,0.081432
0.150789,0.0676267
0.162814,0.0669368
0.137421,0.0888741
0.140883,0.0942259
0.115759,0.096732
0.119393,0.0707113
0.11554,0.0558779
0.112016,0.0547318
0.101877,0.0654457
0.0945765,0.0685373
0.0993123,0.0544941
0.0864851,0.0364895
0.0705659,0.0174833
0.0554599,0.0028262
0.02889,-0.0133628
-0.0022217,-0.035554
-0.0388268,-0.067459
-0.0848501,-0.0964146
-0.124587,-0.112121
-0.154044,-0.0992093
-0.14676,-0.102604
-0.117097,-0.114757
-0.0937398,-0.12243
-0.0939738,-0.102821
-0.100031,-0.0827042
-0.0918214,-0.0818116
-0.0751213,-0.0877664
-0.0632838,-0.0864013
-0.0507394,-0.0725151
-0.0280626,-0.0500461
-0.00406848,-0.0228936
0.0251447,-0.010631
0.0645505,0.00377095
0.105139,0.0219776
0.137105,0.045748
0.141372,0.0716611
0.109833,0.0957092
0.0933761,0.0938887
0.0963413,0.0773029
0.0924024,0.0725507
0.0937484,0.0724886
0.0907322,0.0739363
0.0873693,0.0616663
0.0860981,0.0516913
0.0827948,0.0409966
0.075245,0.0346886
0.062234,0.0311459
0.0460378,0.0243405
0.0330009,0.0114562
0.0236958,-0.00207805
0.0154615,-0.0157387
0.00558974,-0.0300168
-0.00640523,-0.0429536
-0.0160638,-0.0526308
-0.0277259,-0.0595466
-0.0424192,-0.0566718
-0.0577558,-0.0474806
-0.0706182,-0.036154
-0.0753267,-0.0266084
-0.0734713,-0.0185065
-0.060369,-0.0103079
-0.0487524,0.00124049
-0.0312735,0.0108463
-0.0126275,0.0202926
0.00386641,0.0293557
0.0164508,0.0385377
0.0231126,0.0474873
0.0292797,0.0500177
0.0349434,0.046755
0.0390305,0.0412741
0.0427688,0.0336524
0.0459693,0.0245603
0.0431839,0.0173427
0.0358689,0.00670693
0.0241266,-0.00371453
0.012856,-0.0122576
0.000149593,-0.0211641
-0.0136325,-0.0288012
-0.0224123,-0.0358002
-0.0273634,-0.0400714
-0.0277672,-0.0374359
-0.0246736,-0.0352313
-0.0203583,-0.0304952
-0.0160162,-0.0242479
-0.0119611,-0.0150029
-0.00925682,-0.00590505
-0.00622707,0.00331965
-0.000446321,0.0121156
0.00793404,0.0210176
0.0148127,0.0268637
0.0187646,0.029624
0.0200664,0.0296715
0.0195781,0.0291408
0.0141497,0.0255807
0.0092169,0.0203636
0.0039948,0.0143788
0.000112687,0.0075566
-0.00485619,-0.000808298
-0.00801781,-0.00838103
-0.00906833,-0.0169241
-0.0106973,-0.0224297
-0.0136111,-0.0283939
-0.0126182,-0.0323464
-0.0141436,-0.0310476
-0.0134933,-0.0265691
-0.0107358,-0.0190322
-0.00586344,-0.0121082
-0.00122204,-0.00719913
0.00432172,0.000562622
0.0098527,0.00658124
0.012216,0.0128581
0.0136827,0.0168698
0.0145207,0.0203944
0.0135674,0.0224544
0.0114383,0.0222101
0.00911096,0.0182223
0.00983437,0.0134753
0.0128254,0.00763533
0.0109261,0.00216916
0.00964165,-0.00434805
0.00629673,-0.00915914
0.00429819,-0.0129487
0.00303824,-0.0171117
0.00396633,-0.0194392
0.00381307,-0.0223535
0.00466792,-0.0217079
0.00871319,-0.0178988
0.0100385,-0.0127957
0.0106947,-0.00786364
0.0114019,-0.00506325
0.012773,0.00360046
0.0126796,0.0071871
0.0114106,0.0101412
0.0129402,0.0128348
0.0150214,0.0130232
0.0160515,0.0171727
0.0121718,0.0196412
0.0155045,0.017571
0.0136987,0.0147681
0.0133716,0.0120597
0.00657759,0.0115205
0.00326582,0.0047031
0.00123845,-0.00214147
0.000821666,-0.00923697
-0.00169391,-0.014511
-0.00442394,-0.0151886
-0.00430747,-0.0153829
-0.00660355,-0.0191395
-0.00657767,-0.0181169
-0.00858236,-0.0156252
-0.00779892,-0.0123034
-0.00642458,-0.00677388
-0.00562611,-0.00432839
-0.00290266,-0.00285045
0.0019145,0.000855312
0.00368714,0.00383616
0.00469151,0.00526409
0.00546159,0.00525071
0.00430624,0.00523701
0.00252903,0.00591443
0.00209986,0.00589704
0.0015791,0.0020434
0.000375249,-0.0035619
0.000181733,-0.00838574
-0.00203671,-0.0107828
-0.00322551,-0.0127032
-0.00385489,-0.015185
-0.0056332,-0.0156686
-0.00740868,-0.0152415
-0.00383648,-0.0140869
-0.0020113,-0.0117978
-0.00226206,-0.0107247
9.92563e-05,-0.00703437
0.00268246,-0.00260323
-0.000131879,0.00212132
0.00216325,0.00442138
0.00237327,0.00852937
0.00190529,0.0139641
0.00149072,0.017292
0.00222416,0.0165154
0.00561129,0.0125769
0.00580703,0.0110793
0.00692005,0.00666297
0.00224362,0.00363868
0.00227523,-0.00454143
-0.000543302,-0.00773515
-0.000135464,-0.0090741
-0.00475283,-0.00811955
-0.00380535,-0.00771134
-0.00272147,-0.00459292
0.000757123,0.00241483
0.00475112,0.0139
0.00831592,0.0229166
0.0106541,0.0277735
0.0129886,0.0312769
0.0143732,0.0362455
0.0153752,0.0371478
0.0124975,0.0341502
0.0125526,0.0228519
0.00970413,0.0109779
0.00615047,0.000302585
0.00338583,-0.0101422
-0.000670264,-0.0192063
-0.00319753,-0.0316365
-0.00731785,-0.0380498
-0.00950213,-0.0411451
-0.0100481,-0.0390946
-0.0107993,-0.0365649
-0.011966,-0.0301673
-0.00725998,-0.0214596
-0.00581458,-0.0139239
-0.00341561,-0.00577518
-0.00309785,0.00360965
-0.00403957,0.0122821
-0.00210313,0.0212413
-0.0016033,0.0326361
-0.00246962,0.0410423
-0.000447963,0.0406103
0.00123497,0.0381854
0.00245283,0.0354054
0.00439493,0.0301187
0.00440778,0.0227094
0.00293385,0.013035
-0.000201243,0.000391257
-0.00306174,-0.00832756
0.000562965,-0.0145101
0.0047317,-0.0157371
0.0125702,-0.0181972
0.0195585,-0.0169073
0.0207913,-0.0127171
0.0171771,-0.00869458
0.0136129,-0.00501877
0.0146955,-0.00322198
0.0164907,-0.00401073
0.0199449,-0.00477676
0.0288648,-0.00576777
0.0357708,-0.00838559
0.0387265,-0.0124446
0.0410985,-0.0112475
0.0378204,-0.00812603
0.0383304,-0.00446619
0.0371045,0.00131769
0.0448584,0.00470961
0.0451484,0.00952474
0.045034,0.0106784
0.0404615,0.0153296
0.0296094,0.020453
0.0221949,0.0177516
0.0131877,0.0123835
0.0100952,0.00476689
0.00342136,-0.00162077
0.00036518,-0.00749162
-0.00298156,-0.0126099
-0.00219655,-0.0201204
-0.00142778,-0.0251678
-7.27645e-05,-0.0266426
-0.000434402,-0.0254856
0.00322394,-0.0192559
0.00253851,-0.0128809
0.00421834,-0.00695188
0.00284806,0.00108183
0.00358683,0.00873107
0.0013233,0.0137438
-0.00451787,0.0158353
-0.0086167,0.0149836
-0.0173319,0.0120436
-0.0201423,0.00591168
-0.025588,-0.00265471
-0.0260412,-0.0134838
-0.0291986,-0.0233079
-0.0377262,-0.0297033
-0.0466475,-0.0377362
-0.057091,-0.0447892
-0.0589453,-0.0444467
-0.060969,-0.0433458
-0.0636289,-0.0364974
-0.0587952,-0.02556
-0.057865,-0.0156121
-0.0634886,-0.0045046
-0.0606888,0.0103301
-0.0584228,0.0269865
-0.0651848,0.0468105
-0.0752076,0.0620277
-0.0676857,0.0733966
-0.0684319,0.0795371
-0.0795686,0.0867761
-0.0882564,0.0791915
-0.094029,0.0776654
-0.0985192,0.0746405
-0.111161,0.071985
-0.107457,0.0697652
-0.113885,0.0642205
-0.113793,0.0660843
-0.10916,0.0683605
-0.126933,0.0791317
-0.119372,0.0857313
-0.109505,0.0897544
-0.112136,0.0946966
-0.114156,0.094314
-0.110661,0.0950538
-0.104333,0.0932749
-0.0912968,0.097326
-0.0770406,0.0970399
-0.0767978,0.0904885
-0.0817104,0.0891691
-0.0811864,0.0905203
-0.069781,0.093167
-0.0589966,0.093551
-0.0245682,0.0880859
-0.00128942,0.0796492
-0.00896155,0.0783271
0.000265624,0.0827647
-0.016157,0.0804488
-0.0293086,0.0755628
-0.0607121,0.0776708
-0.0958031,0.0764032
-0.141144,0.0723166
-0.174539,0.0665236
-0.167831,0.0504482
-0.142289,0.0381241
-0.143901,0.0308386
-0.168438,0.021563
-0.196729,0.00954389
-0.1802,-0.0160013
-0.142618,-0.0487033
-0.161467,-0.0755886
-0.215969,-0.093182
-0.193998,-0.0936869
-0.105822,-0.0905662
-0.0822703,-0.0699554
-0.140743,-0.0385859
-0.154902,-0.0311092
-0.120285,-0.0289051
-0.0883301,-0.0272948
-0.0770921,-0.0161528
-0.0819297,-0.00294854
-0.0853187,0.0156371
-0.0792089,0.0259708
-0.0449542,0.0297275
-0.0171835,0.0304631
-0.00120513,0.0334039
0.0204798,0.0416936
0.0293454,0.0512141
0.0549343,0.0592749
0.0610642,0.0637574
0.0737212,0.0604467
0.0719068,0.0510025
0.0667315,0.0361542
0.0665142,0.00478656
0.0622876,-0.0211992
0.0528235,-0.0601787
0.0491255,-0.0961004
0.0461967,-0.124327
0.040214,-0.117002
0.0382982,-0.0934023
0.0261922,-0.0892012
0.0111797,-0.0951856
0.000593561,-0.0982927
-0.00951843,-0.101103
-0.0218094,-0.100559
-0.0322009,-0.0927882
-0.0461119,-0.085274
-0.0593661,-0.0795287
-0.0681932,-0.0776995
-0.0727897,-0.0746726
-0.0735335,-0.0717607
-0.0627195,-0.0648403
-0.0535395,-0.0553
-0.0390744,-0.0453279
-0.0176185,-0.0359706
0.00116366,-0.0263748
0.0222876,-0.0155449
0.0419837,-0.00150403
0.0646795,0.0117419
0.0809491,0.0268609
0.092721,0.0446955
0.0897565,0.057454
0.0755699,0.0635101
0.0689296,0.0640655
0.0662998,0.052447
0.0596009,0.0394513
0.051451,0.0253753
0.0400311,0.0136711
0.0206595,0.000985419
0.00865493,-0.0148069
-0.00249419,-0.031944
-0.00964344,-0.0475729
-0.0163711,-0.057686
-0.0213198,-0.0643194
-0.0255497,-0.0614403
-0.0328023,-0.0513006
-0.0347114,-0.0406529
-0.0341694,-0.0269445
-0.0342692,-0.0172173
-0.0300013,0.000991261
-0.0328564,0.0215929
-0.0244718,0.045195
-0.0197982,0.0581249
-0.0113433,0.0701917
-0.00400611,0.0710952
0.00784287,0.06088
0.0203317,0.0451275
0.0329312,0.0277118
0.0417157,0.0176013
0.0427015,0.00613687
0.043924,-0.00171029
0.0441297,-0.0149906
0.0445067,-0.0295275
0.046216,-0.0465976
0.0441895,-0.0573125
0.0393686,-0.0631164
0.0351877,-0.0601502
0.0294571,-0.0539566
0.0232591,-0.0455461
0.0158373,-0.0357897
0.0116645,-0.026709
0.00810086,-0.0174771
0.00851784,-0.00938295
0.0107401,-0.00129239
0.015032,0.00634752
0.0210512,0.0131478
0.0309293,0.0181679
0.0423509,0.0209153
0.051683,0.022129
0.0557218,0.0227309
0.0550233,0.0231326
0.0493192,0.0201205
0.0407328,0.0145
0.0396913,0.00714497
0.0467183,-0.00172352
0.0579166,-0.0115336
0.0747198,-0.0199374
0.0833396,-0.0269954
0.083252,-0.030225
0.0738101,-0.0333417
0.0618912,-0.0332245
0.0464218,-0.0280738
0.0358252,-0.0229722
0.0507712,-0.0214337
0.0709828,-0.0199491
0.0838237,-0.0193987
0.0918235,-0.020558
0.0859682,-0.019136
0.0634043,-0.0160839
0.0331942,-0.00798738
0.00908246,0.0010628
0.0193611,0.00724383
0.0120649,0.0155676
0.0122,0.0229369
0.00460742,0.0330091
0.00223047,0.03783
-0.00327259,0.0397468
-0.00776577,0.040722
-0.0183178,0.0385842
-0.029854,0.0353344
-0.0412567,0.0317999
-0.051948,0.0258854
-0.0611048,0.0178795
-0.0713871,0.0101463
-0.0760899,0.00633447
-0.0764227,0.00564077
-0.0743095,0.00843733
-0.0665886,0.0118578
-0.0642459,0.0125836
-0.0650234,0.0182195
-0.0636089,0.0229631
-0.0642981,0.0281157
-0.0644637,0.0292689
-0.0645903,0.0242649
-0.0653286,0.0162694
-0.0521902,0.0102475
-0.0428245,0.0060728
-0.0417788,0.00539125
-0.0422383,0.00630519
-0.0459638,0.00908623
-0.0502977,0.0183149
-0.0493416,0.0280276
-0.0444292,0.0387461
-0.0430702,0.0448899
-0.0463655,0.0479149
-0.0522998,0.0483814
-0.0551682,0.0428586
-0.055385,0.0365232
-0.0519663,0.0198965
-0.0634417,-0.00253663
-0.0688641,-0.0286702
-0.0804566,-0.0553171
-0.0773045,-0.0715299
-0.0725116,-0.0855496
-0.0646707,-0.0828373
-0.039335,-0.0715863
-0.0327356,-0.0526285
0.00388452,-0.040473
0.0376255,-0.0367414
0.0797503,-0.0413146
0.12689,-0.0481705
0.180578,-0.0644462
0.216528,-0.0765795
0.186599,-0.0826636
0.127618,-0.0779301
0.0934767,-0.0847205
0.0674343,-0.0885924
0.12996,-0.0984511
0.222417,-0.103694
0.207175,-0.0902
0.0717554,-0.0536074
0.000257157,-0.0284246
0.0843686,-0.041217
0.153189,-0.0518758
0.160938,-0.0427601
0.135083,-0.0222267
0.0891047,-0.00296074
0.0877271,0.0154307
0.109872,0.0224739
0.120667,0.0306399
0.10178,0.043051
0.0842739,0.0524505
0.081513,0.0525164
0.0824041,0.0547034
0.0603476,0.0566252
0.0314571,0.0537311
0.0105695,0.0486027
0.000845466,0.0415052
-0.0222972,0.0419792
-0.0268087,0.035572
-0.0459871,0.0319575
-0.0409667,0.0204698
-0.0574657,0.0107615
-0.0534465,-0.0056441
-0.0536371,-0.0249711
-0.0627752,-0.0446138
-0.0700739,-0.0549232
-0.0718177,-0.06133
-0.0680156,-0.0654616
-0.0562001,-0.0692663
-0.0497339,-0.0587251
-0.0489006,-0.0332977
-0.0536985,-0.0146838
-0.0467812,-0.00372853
-0.0425022,0.00430501
-0.042033,0.0172532
-0.0278511,0.0280965
-0.0105479,0.0355635
0.0250278,0.0283028
0.0428941,0.0186407
0.0511129,0.00996794
0.0596768,0.000674559
0.0504112,-0.00621624
0.0413977,-0.0143062
0.0318807,-0.0184579
0.0186437,-0.0183457
0.0260288,-0.0129612
0.0336538,-0.00606191
0.0464628,0.00151756
0.0928676,0.0104766
0.139842,0.0237603
0.176158,0.0369161
0.207464,0.0466367
0.22935,0.0582922
0.237867,0.0685737
0.257162,0.0708876
0.312649,0.0671211
0.381276,0.059758
0.421499,0.0551001
0.425478,0.0641507
0.432087,0.0695482
0.445699,0.0679021
0.456235,0.0592598
0.456292,0.0561508
0.443792,0.0507878
0.413786,0.0442221
0.378582,0.0395696
0.381348,0.0280999
0.395277,0.0181979
0.378885,0.0177288
0.334846,0.0213662
0.286125,0.0243962
0.249424,0.0214371
0.195914,0.0196643
0.132002,0.0205531
0.0826478,0.0203861
0.0208536,0.0106495
-0.0999924,-0.0054292
-0.273074,-0.0164689
-0.444704,-0.0240787
-0.506539,-0.043893
-0.476562,-0.0762714
-0.499892,-0.0964573
-0.574552,-0.0963627
-0.663122,-0.0733361
-0.751829,-0.0528189
-0.815037,-0.0465842
-0.821295,-0.0561503
-0.885213,-0.0512183
-0.946432,-0.0348811
-0.949728,-0.0289451
-0.915453,-0.0223349
-0.873213,-0.0219247
-0.862489,-0.00623187
-0.798962,-0.0038871
-0.76595,0.00871029
-0.703286,0.0168451
-0.661805,0.0360263
-0.619279,0.0596077
-0.524736,0.0711841
-0.452423,0.0803785
-0.387197,0.0811889
-0.256604,0.0580222
-0.129539,0.0318267
-0.0159932,0.0142518
0.0397291,0.00733466
0.158324,-0.0132066
0.32521,-0.0425569
0.477723,-0.0735079
0.518469,-0.0879241
0.482033,-0.0794027
0.465444,-0.0657247
0.584913,-0.0763696
0.775706,-0.100468
0.828637,-0.088822
0.743451,-0.0477453
0.760042,-0.0465854
0.869961,-0.0593418
0.902811,-0.060198
0.848772,-0.0449808
0.799491,-0.0336561
0.808122,-0.0279157
0.805811,-0.0242051
0.752072,-0.012819
0.70742,-0.0116415
0.639742,-0.00968328
0.58447,-0.00717259
0.533279,-0.00641789
0.421387,0.00270917
0.328273,0.00193253
0.252249,-0.00108861
0.171256,-0.00796959
0.0532698,-0.00838196
-0.0260925,-0.00772579
-0.106801,-0.00579402
-0.245147,0.00367028
-0.408422,0.0202447
-0.479287,0.0271655
-0.44507,0.0227091
-0.425669,0.0211211
-0.532009,0.0384746
-0.692003,0.0644526
-0.727093,0.0745972
-0.675911,0.064493
-0.713325,0.062276
-0.797427,0.0736055
-0.806187,0.0714367
-0.787218,0.0659322
-0.753481,0.0577493
-0.762061,0.0559093
-0.770173,0.057717
-0.694643,0.0412622
-0.663791,0.0390881
-0.63159,0.0389113
-0.568486,0.0300326
-0.527754,0.0261369
-0.452537,0.019749
-0.34807,0.00662323
-0.285271,0.0049249
-0.220274,-0.000507734
-0.129009,-0.00516906
-0.00430229,-0.0147956
0.0760363,-0.0223469
0.15357,-0.0292196
0.308079,-0.0466628
0.435317,-0.0563883
0.461253,-0.0518542
0.384095,-0.0359569
0.419722,-0.0340982
0.565981,-0.0550877
0.672938,-0.0638372
0.629071,-0.0497138
0.596008,-0.0435728
0.681343,-0.0578676
0.766575,-0.0738021
0.746278,-0.0669691
0.698912,-0.0575508
0.693787,-0.0547495
0.729854,-0.0581496
0.694214,-0.0533587
0.601292,-0.0379599
0.579466,-0.0409481
0.557607,-0.0421685
0.491303,-0.0287532
0.434569,-0.017616
0.385184,-0.00931129
0.296554,-0.000426118
0.203853,0.0110552
0.139896,0.0194573
0.0696699,0.0326275
0.0226216,0.0391571
-0.0607924,0.0458827
-0.1845,0.0538978
-0.330125,0.063031
-0.419861,0.0631459
-0.407766,0.0455288
-0.368131,0.0211037
-0.422336,0.0208893
-0.56367,0.0357898
-0.621324,0.0426343
-0.579524,0.0337456
-0.594266,0.0326473
-0.637701,0.0352725
-0.674284,0.0425739
-0.662754,0.0478916
-0.629266,0.0492694
-0.641932,0.0540731
-0.635199,0.0565321
-0.563601,0.0466373
-0.543534,0.0520266
-0.543973,0.0622029
-0.463643,0.0536668
-0.38645,0.0433236
-0.368273,0.0426122
-0.325615,0.0403997
-0.221959,0.0249133
-0.131499,0.0171027
-0.0796872,0.00898033
-0.0723202,0.00547237
-0.00253181,-0.00922074
0.0965683,-0.0262913
0.223082,-0.0481515
0.36458,-0.0688406
0.412622,-0.0772724
0.327412,-0.0572575
0.334401,-0.0497497
0.481697,-0.0691285
0.558298,-0.0698907
0.513919,-0.0455993
0.509417,-0.0359477
0.55591,-0.0362297
0.602729,-0.04047
0.608649,-0.0399238
0.569791,-0.0354042
0.549312,-0.0317852
0.582326,-0.0330457
0.575178,-0.0307386
0.490296,-0.0201212
0.439907,-0.0203216
0.453314,-0.0327175
0.419052,-0.0349892
0.315733,-0.0252003
0.252319,-0.0220948
0.237027,-0.0235029
0.199293,-0.0275407
0.100964,-0.0230411
0.0166305,-0.0140082
-0.00387702,-0.00937008
-0.0718424,-0.0019416
-0.189371,0.0113432
-0.296471,0.0264481
-0.383153,0.0409333
-0.354139,0.0436498
-0.301302,0.0363313
-0.358296,0.0471233
-0.473744,0.0629042
-0.493728,0.0635747
-0.431841,0.0456745
-0.439348,0.0401943
-0.534285,0.0495271
-0.568294,0.0536523
-0.492335,0.040376
-0.458231,0.0363651
-0.506223,0.0412305
-0.504749,0.0393638
-0.431044,0.0247567
-0.385198,0.0218564
-0.389796,0.0252151
-0.368875,0.0256933
-0.304835,0.0226218
-0.233724,0.0168472
-0.182436,0.0145046
-0.15083,0.0164321
-0.141984,0.0192111
-0.109418,0.0184227
-0.0277565,0.0124927
0.0464152,0.0067247
0.124386,0.000929846
0.240858,-0.012435
0.334059,-0.0262058
0.363567,-0.0378825
0.283887,-0.0304572
0.246327,-0.0342136
0.321608,-0.0469829
0.432563,-0.0619028
0.42434,-0.0593125
0.362486,-0.0379894
0.408091,-0.04272
0.492771,-0.0575343
0.464944,-0.0533226
0.389557,-0.0388597
0.397098,-0.0376302
0.442042,-0.0453077
0.410745,-0.0381989
0.32796,-0.0233768
0.28901,-0.0222006
0.292334,-0.026645
0.316446,-0.0280822
0.267148,-0.0217725
0.175897,-0.00844081
0.114255,0.000617726
0.130941,-0.00459972
0.18398,-0.0211851
0.170706,-0.0326327
0.116423,-0.0467639
0.116997,-0.0682751
0.252425,-0.111729
0.423114,-0.163105
0.47799,-0.153997
0.42724,-0.113659
0.438784,-0.126307
0.536982,-0.169185
0.569318,-0.15904
0.456448,-0.110325
0.296442,-0.0861819
0.184198,-0.0915899
0.108293,-0.0834456
0.00680756,-0.0662486
-0.0795893,-0.055356
-0.22984,-0.0265476
-0.404912,0.0174498
-0.481437,0.0665739
-0.424729,0.0894355
-0.428371,0.103141
-0.573688,0.126779
-0.724717,0.137782
-0.741703,0.115768
-0.723061,0.106308
-0.774527,0.113888
-0.880028,0.132897
-0.881557,0.122897
-0.861013,0.110808
-0.839298,0.111618
-0.82426,0.108829
-0.824022,0.110786
-0.762679,0.0976398
-0.737485,0.0957659
-0.689626,0.0970046
-0.629555,0.0913589
-0.593345,0.0902784
-0.50216,0.0751883
-0.410154,0.0605966
-0.355545,0.0566315
-0.25028,0.0404102
-0.124334,0.0255576
-0.0260162,0.00839084
0.0132382,-0.0017487
0.136443,-0.0292606
0.289581,-0.062502
0.42583,-0.0977459
0.463995,-0.110059
0.429708,-0.0838975
0.458251,-0.0696427
0.61918,-0.0869935
0.741818,-0.0901982
0.69953,-0.065723
0.649378,-0.0413278
0.759767,-0.0535764
0.869927,-0.060173
0.81393,-0.0394572
0.744555,-0.0193397
0.75947,-0.0147189
0.820083,-0.0174674
0.764453,-0.00554418
0.652464,0.0101236
0.657888,0.00513926
0.661624,0.000510669
0.555631,0.00639368
0.46639,0.00743382
0.400073,0.00195336
0.330898,-0.00369653
0.252729,-0.0130747
0.170902,-0.0212356
0.0733965,-0.0213594
-0.00162989,-0.0263952
-0.0807181,-0.0288087
-0.212321,-0.023564
-0.36259,-0.00445481
-0.423882,0.00518641
-0.401151,0.00824854
-0.416882,0.0180249
-0.529711,0.0399702
-0.639206,0.0649898
-0.616508,0.0688328
-0.603541,0.0668368
-0.694808,0.0782979
-0.762234,0.0847538
-0.730379,0.064278
-0.696214,0.0511601
-0.682418,0.0497116
-0.704692,0.0489159
-0.690349,0.0457775
-0.615564,0.0344811
-0.604522,0.0325151
-0.598211,0.0343727
-0.507138,0.0206243
-0.440235,0.0141207
-0.413758,0.0142035
-0.345611,0.00840306
-0.241766,0.00174627
-0.169824,0.000766349
-0.11081,-0.002325
-0.0659414,-0.0025932
0.00180829,-0.00788673
0.0973757,-0.0132346
0.237198,-0.0237493
0.378634,-0.0376594
0.444662,-0.04839
0.402381,-0.0422449
0.446747,-0.0564902
0.618015,-0.0979493
0.776848,-0.117747
0.844985,-0.115681
0.888076,-0.108506
0.936839,-0.101639
1.04788,-0.124154
1.13169,-0.130955
1.11907,-0.108287
1.03832,-0.0745715
1.00157,-0.073664
0.950281,-0.0596472
0.861893,-0.0432278
0.753908,-0.0192989
0.675294,-0.00393438
0.572251,0.0228294
0.45675,0.0578426
0.362409,0.0850546
0.218754,0.106989
0.0870442,0.104061
-0.0201954,0.0934968
-0.100808,0.0723568
-0.297358,0.0871792
-0.51398,0.10003
-0.607821,0.0878485
-0.542849,0.0399335
-0.591321,0.0316689
-0.817298,0.0499476
-0.925352,0.061468
-0.848234,0.0394171
-0.908103,0.0357323
-1.06095,0.0400058
-1.09321,0.0336204
-1.02797,0.0166296
-1.04197,0.020004
-1.09794,0.0309151
-1.07044,0.0331728
-0.999196,0.0371335
-0.967495,0.0434448
-0.932565,0.0583786
-0.863289,0.0615017
-0.774674,0.0737513
-0.683037,0.064778
-0.611714,0.066406
-0.472274,0.0479773
-0.368221,0.0483835
-0.261666,0.0404504
-0.125816,0.0339681
0.00740868,0.0188302
0.0834429,0.0128248
0.256655,-0.0106036
0.454773,-0.0414501
0.565511,-0.0708483
0.516697,-0.0650653
0.565953,-0.0707249
0.762822,-0.102096
0.859289,-0.093289
0.810415,-0.0589109
0.863913,-0.0617259
0.990562,-0.0786312
1.03268,-0.0792677
0.988739,-0.0632868
0.985021,-0.058915
1.03693,-0.0632438
1.0218,-0.0508489
0.959975,-0.0347667
0.917351,-0.027143
0.900009,-0.0310221
0.821387,-0.024203
0.740808,-0.0156277
0.646757,-0.00645383
0.584123,-0.00284966
0.490056,0.00688409
0.35849,0.0181786
0.256389,0.0241391
0.17872,0.0269216
0.0498255,0.0355537
-0.0712207,0.042809
-0.193231,0.0441078
-0.371517,0.0496767
-0.509086,0.0549905
-0.504542,0.0386352
-0.530335,0.0286077
-0.644577,0.0375342
-0.761869,0.0499525
-0.788088,0.0458972
-0.845434,0.0503293
-0.886261,0.0536037
-0.922598,0.0557872
-0.962222,0.0670608
-0.957178,0.0700844
-0.968573,0.0748916
-0.953392,0.0699928
-0.9435,0.0672928
-0.890942,0.0582943
-0.856024,0.0591144
-0.796399,0.0557629
-0.743863,0.0550965
-0.676789,0.0494128
-0.57764,0.037027
-0.511878,0.0292423
-0.412795,0.0196865
-0.281214,0.00220233
-0.187882,-0.00581773
-0.0829657,-0.0207446
0.0251651,-0.0352012
0.139406,-0.0525376
0.305854,-0.0740018
0.473091,-0.0859027
0.515685,-0.0750144
0.509763,-0.0479338
0.540657,-0.0394664
0.65022,-0.0489693
0.792104,-0.0590167
0.845236,-0.0581784
0.787217,-0.0366981
0.815679,-0.037687
0.943756,-0.0545168
0.954986,-0.0549571
0.884547,-0.0466665
0.876393,-0.0481995
0.909587,-0.057308
0.877311,-0.0550594
0.788058,-0.0420352
0.756854,-0.0502495
0.71594,-0.0542019
0.656309,-0.0506361
0.562398,-0.0390242
0.459669,-0.0281632
0.404906,-0.0272554
0.309315,-0.0242256
0.181577,-0.0133965
0.07764,-0.00126246
0.015879,0.0112014
-0.0639683,0.023475
-0.204871,0.0403754
-0.386319,0.0634295
-0.490013,0.0749661
-0.484818,0.0626215
-0.458763,0.0437969
-0.556374,0.0493547
-0.746708,0.0702274
-0.779431,0.0658919
-0.688345,0.0369849
-0.748145,0.038858
-0.90396,0.057161
-0.880418,0.0513014
-0.801503,0.0339245
-0.828508,0.0443195
-0.879415,0.0526488
-0.835822,0.0456257
-0.738185,0.0333748
-0.73745,0.0429935
-0.708221,0.0505584
-0.629205,0.0478745
-0.56524,0.0495549
-0.467106,0.0392763
-0.398021,0.0408012
-0.323573,0.0379261
-0.225192,0.0363951
-0.101617,0.0251021
0.0225608,0.0161568
0.106041,0.0115131
0.213616,8.97858e-05
0.400117,-0.0302123
0.494418,-0.0578768
0.480151,-0.071023
0.500989,-0.0854547
0.622657,-0.10192
0.764904,-0.108403
0.811108,-0.0853022
0.805622,-0.0537165
0.869482,-0.0571781
0.919792,-0.0593235
0.942342,-0.0579189
0.927105,-0.0452771
0.916154,-0.0294704
0.902218,-0.0174036
0.860353,0.00104715
0.816644,0.0217439
0.748589,0.0440433
0.70847,0.0509589
0.633268,0.0483169
0.54673,0.0436756
0.482204,0.0439125
0.383984,0.0550334
0.256349,0.0653262
0.164018,0.048522
0.0726398,0.0285664
-0.0121794,0.0175837
-0.126444,0.0263217
-0.288296,0.036174
-0.462203,0.0434955
-0.528149,0.029485
-0.511036,0.00269612
-0.514164,-0.0146406
-0.610816,-0.0105736
-0.766545,0.00310135
-0.843558,0.0115529
-0.779969,-0.000975557
-0.75635,-0.00224429
-0.842633,0.0193532
-0.922647,0.0478489
-0.907498,0.059996
-0.837739,0.0590876
-0.794888,0.0524604
-0.810433,0.0626546
-0.784267,0.0675871
-0.73288,0.0647706
-0.654361,0.0603213
-0.594829,0.0550175
-0.570215,0.0640675
-0.468643,0.0571759
-0.371485,0.0521351
-0.32235,0.0512978
-0.247922,0.0483099
-0.123997,0.030209
-0.0173722,0.0165809
0.0423738,0.00546902
0.134644,-0.00896297
0.298117,-0.0384263
0.42122,-0.0638833
0.47126,-0.0795654
0.404141,-0.0720745
0.453115,-0.0689273
0.628242,-0.0898814
0.684667,-0.0799703
0.617371,-0.047234
0.658247,-0.0472651
0.800673,-0.0657381
0.806065,-0.0610628
0.719032,-0.0384587
0.731515,-0.0412515
0.803263,-0.0482725
0.790045,-0.0401448
0.692486,-0.0201542
0.637462,-0.0118308
0.666635,-0.0195262
0.618436,-0.0198803
0.500304,-0.00862269
0.458222,-0.00761263
0.427907,-0.00912749
0.313657,-0.00228587
0.207355,0.00125972
0.142694,-0.00173988
0.0942737,-0.00491247
0.0217269,-0.00363674
-0.0570794,-0.00191836
-0.188536,0.00700573
-0.347526,0.0208371
-0.449469,0.0333133
-0.423061,0.0252313
-0.419072,0.0229101
-0.485211,0.030951
-0.587087,0.0499097
-0.61841,0.0579052
-0.640892,0.062461
-0.659232,0.0641158
-0.663168,0.0583106
-0.699596,0.0608119
-0.723931,0.0681313
-0.684373,0.0639638
-0.688847,0.0635261
-0.686277,0.0599318
-0.618196,0.0415764
-0.591075,0.0366631
-0.568478,0.0390079
-0.49661,0.0330318
-0.445324,0.0269249
-0.410517,0.023754
-0.320834,0.0121803
-0.222867,0.000570874
-0.157023,-0.0074299
-0.115286,-0.0090384
-0.0613399,-0.0144378
-0.000165445,-0.0192705
0.103375,-0.0315069
0.234184,-0.0473411
0.377089,-0.0575724
0.426466,-0.0590496
0.395545,-0.0459599
0.383919,-0.0359487
0.43947,-0.0413726
0.561873,-0.0546781
0.62673,-0.0576434
0.58502,-0.04107
0.570225,-0.0379809
0.613247,-0.04462
0.673696,-0.0614352
0.657597,-0.0634949
0.602361,-0.0530325
0.601998,-0.05104
0.609367,-0.0528391
0.549178,-0.0438672
0.50077,-0.0385479
0.494778,-0.0463233
0.434249,-0.0405511
0.347665,-0.0265395
0.305586,-0.0160956
0.285088,-0.00992432
0.197608,0.000672994
0.0883344,0.00906964
0.0278977,0.0170898
0.0239077,0.0217105
-0.0664962,0.03498
-0.175154,0.0462346
-0.302574,0.0598688
-0.398504,0.0650313
-0.36387,0.0474101
-0.297917,0.0239878
-0.381143,0.0323974
-0.54103,0.0517353
-0.541052,0.0479828
-0.449845,0.0258444
-0.467087,0.0240257
-0.604416,0.0389362
-0.628617,0.0431858
-0.523512,0.0329625
-0.507834,0.0378779
-0.580614,0.0511152
-0.563241,0.0504514
-0.461056,0.0371677
-0.440043,0.0413277
-0.470699,0.0544881
-0.411777,0.0513194
-0.310556,0.0360012
-0.26929,0.032902
-0.265586,0.0371289
-0.20515,0.0312414
-0.116252,0.0210364
-0.0571068,0.0132344
-0.0553038,0.0120914
0.00237722,0.000297921
0.0929622,-0.0149544
0.206614,-0.0322447
0.332227,-0.0526093
0.380986,-0.0633469
0.298482,-0.0515189
0.294817,-0.0487005
0.414379,-0.0665084
0.467724,-0.0700925
0.410982,-0.0447414
0.402181,-0.035898
0.473954,-0.0408837
0.545749,-0.0499496
0.5049,-0.0412969
0.45018,-0.0361269
0.451918,-0.0340251
0.488751,-0.036565
0.474287,-0.0296291
0.398141,-0.0170858
0.343267,-0.0151958
0.343841,-0.0203685
0.351343,-0.0252904
0.281007,-0.0198223
0.186009,-0.0108508
0.144744,-0.00857966
0.149793,-0.0131606
0.121815,-0.0150854
0.0524795,-0.0129034
-0.0118542,-0.00772992
-0.0728844,-0.00382409
-0.177866,0.00655968
-0.284223,0.0179582
-0.344506,0.0284652
-0.282761,0.02366
-0.240642,0.0233885
-0.27833,0.0328874
-0.362558,0.0481058
-0.389583,0.0517979
-0.384305,0.0475664
-0.391102,0.047563
-0.401177,0.049055
-0.395005,0.0506721
-0.391082,0.0519684
-0.40282,0.0535504
-0.401274,0.0522925
-0.363027,0.0392391
-0.311662,0.0266834
-0.270311,0.0188923
-0.258179,0.017212
-0.250782,0.0177983
-0.20622,0.0129625
-0.149883,0.00430376
-0.113653,-0.003516
-0.112975,-0.00438782
-0.0793223,-0.0102884
-0.00263903,-0.0211775
0.0904812,-0.0364393
0.219232,-0.0589944
0.37254,-0.0843245
0.450489,-0.0983677
0.431637,-0.0796726
0.435301,-0.063311
0.581203,-0.0893198
0.749203,-0.114979
0.766888,-0.100973
0.721582,-0.0703829
0.807019,-0.0856206
0.959773,-0.112624
1.02222,-0.109562
0.953677,-0.086475
0.943445,-0.0857074
0.985993,-0.093903
0.925361,-0.072951
0.791626,-0.0398725
0.654341,-0.0194476
0.558138,-0.00388237
0.405783,0.0256462
0.264325,0.0637486
0.13364,0.102731
0.00466343,0.122757
-0.126176,0.117085
-0.280923,0.0906216
-0.502311,0.0969802
-0.614163,0.0968433
-0.624058,0.0803277
-0.648893,0.0639566
-0.786243,0.0810971
-0.98244,0.101022
-1.08623,0.0922501
-1.03168,0.0520198
-1.06209,0.0434351
-1.18271,0.0543151
-1.2386,0.0634582
-1.17229,0.0461902
-1.16984,0.0433724
-1.19012,0.0423724
-1.15771,0.0404912
-1.09565,0.0297676
-1.0385,0.0321593
-0.992703,0.0356877
-0.904498,0.0368111
-0.812801,0.0403985
-0.684807,0.033961
-0.578525,0.0381796
-0.445684,0.0339952
-0.294996,0.0343162
-0.168364,0.0327338
-0.0510255,0.0366438
0.082401,0.0262713
0.20686,0.019048
0.427295,-0.00792671
0.582369,-0.0237825
0.620359,-0.0302804
0.617342,-0.0349722
0.712863,-0.0571963
0.898495,-0.08656
1.0274,-0.0945631
0.992119,-0.0719267
0.999636,-0.0656957
1.09773,-0.075417
1.18074,-0.0865321
1.15306,-0.07611
1.12332,-0.0681046
1.12078,-0.0657721
1.11437,-0.0630944
1.06911,-0.0548132
1.01156,-0.0514861
0.93924,-0.0482492
0.872297,-0.0470326
0.783535,-0.0312249
0.688274,-0.0158442
0.569687,0.00220837
0.456955,0.0172537
0.36084,0.026477
0.210482,0.0461186
0.0686804,0.0617409
-0.0594627,0.074049
-0.140375,0.0680343
-0.339333,0.0727785
-0.548332,0.0739302
-0.622203,0.0621044
-0.547998,0.0246331
-0.601063,0.0168745
-0.837235,0.0334614
-0.969136,0.0463745
-0.898744,0.0313373
-0.928614,0.0289452
-1.0643,0.0416922
-1.13442,0.0523811
-1.07897,0.0493134
-1.07234,0.0557065
-1.09491,0.0708558
-1.08399,0.0738168
-1.03061,0.0731416
-0.988782,0.0708738
-0.933791,0.0726757
-0.877019,0.070134
-0.787292,0.0662693
-0.702634,0.0560237
-0.609259,0.0491821
-0.485719,0.0307927
-0.388929,0.0276665
-0.235316,0.0122835
-0.0928922,0.000204202
0.0187621,-0.0163783
0.0814337,-0.0269833
0.264542,-0.0577035
0.469411,-0.0888801
0.590596,-0.0989024
0.549876,-0.0689242
0.569056,-0.0545476
0.749585,-0.074682
0.892337,-0.0860357
0.87584,-0.066136
0.89184,-0.0548064
0.980248,-0.058966
1.05013,-0.0675668
1.05317,-0.0581545
1.03125,-0.0507242
1.04064,-0.0510918
1.03342,-0.0460367
1.00655,-0.0412723
0.946657,-0.0295352
0.89877,-0.0323389
0.831307,-0.0315726
0.777115,-0.0351414
0.676548,-0.0279563
0.590264,-0.0255593
0.491037,-0.0200075
0.372179,-0.0157645
0.269183,-0.0132195
0.176159,-0.0111319
0.0375834,0.00218782
-0.0746174,0.0120766
-0.197877,0.0244196
-0.378096,0.041199
-0.520438,0.0602013
-0.515749,0.0522591
-0.540213,0.0486136
-0.664409,0.0594562
-0.791302,0.0733078
-0.81256,0.0641309
-0.865949,0.0593248
-0.916588,0.0627065
-0.953052,0.0617627
-0.987013,0.0673644
-0.985201,0.0628126
-0.999273,0.0623078
-0.982228,0.0559207
-0.968018,0.0536911
-0.918478,0.046244
-0.884801,0.0501025
-0.813771,0.0476564
-0.763411,0.0499092
-0.682492,0.042792
-0.600092,0.0362742
-0.5269,0.0324592
-0.407772,0.0226876
-0.288881,0.0102581
-0.202399,0.00616192
-0.0741638,-0.00525754
0.0527846,-0.0173948
0.160405,-0.0299779
0.323881,-0.0471214
0.485452,-0.0639961
0.512074,-0.0619113
0.505943,-0.0482158
0.574479,-0.0534323
0.70551,-0.0694448
0.808568,-0.0754344
0.833224,-0.0649212
0.836992,-0.0540647
0.86594,-0.056431
0.946287,-0.0688829
0.963745,-0.0734168
0.929016,-0.0628901
0.921266,-0.0606614
0.917575,-0.0540528
0.896567,-0.0507175
0.833168,-0.0410918
0.790215,-0.0451667
0.727402,-0.0452517
0.673427,-0.0402268
0.590973,-0.0283967
0.479748,-0.0117484
0.411669,-0.00562714
0.308944,0.000661914
0.194052,0.00904567
0.0828409,0.0219896
0.00455526,0.0344081
-0.0781303,0.0469523
-0.215005,0.0566133
-0.404292,0.0703411
-0.510975,0.0719736
-0.513891,0.0535028
-0.485319,0.0311663
-0.556413,0.0321206
-0.740011,0.0492572
-0.822726,0.0556486
-0.755384,0.0412035
-0.771216,0.0356736
-0.888069,0.0498636
-0.913216,0.0549016
-0.871287,0.0525027
-0.862225,0.0593069
-0.872841,0.0620904
-0.859316,0.0634274
-0.789037,0.0502164
-0.760066,0.0575317
-0.703435,0.0597005
-0.658568,0.0569392
-0.599344,0.0583639
-0.485381,0.041179
-0.419527,0.0386931
-0.343176,0.0330167
-0.232329,0.0266758
-0.115673,0.00963323
-0.033468,-0.00132863
0.0305387,-0.0148093
0.133718,-0.0316023
0.308188,-0.06113
0.455942,-0.0820748
0.52963,-0.0851003
0.459438,-0.0592366
0.465238,-0.04931
0.634724,-0.0690791
0.763638,-0.0776512
0.735564,-0.0577754
0.711061,-0.0426977
0.770541,-0.0434526
0.855157,-0.058152
0.845005,-0.0520988
0.832803,-0.0532634
0.8051,-0.0482136
0.796309,-0.0425611
0.786235,-0.0393679
0.721017,-0.0279495
0.677672,-0.0326408
0.620153,-0.0356883
0.562648,-0.0327969
0.511775,-0.0291269
0.42117,-0.020275
0.315589,-0.0112016
0.248389,-0.0134135
0.171137,-0.0103673
0.0726968,-0.00465886
-0.016046,0.0056423
-0.0838497,0.0102968
-0.232246,0.024525
-0.391968,0.0428905
-0.479395,0.0575177
-0.421856,0.0474636
-0.43387,0.0407187
-0.566783,0.0561366
-0.662122,0.0682118
-0.636533,0.0555133
-0.662027,0.0494173
-0.745642,0.0581777
-0.758846,0.0573654
-0.739168,0.0486363
-0.767777,0.0593213
-0.761255,0.0593265
-0.75557,0.0565185
-0.722772,0.0499606
-0.665064,0.0384938
-0.65733,0.0412444
-0.600468,0.0393825
-0.527064,0.0354737
-0.493771,0.0374035
-0.433038,0.0367177
-0.328973,0.0269728
-0.255402,0.0252893
-0.179365,0.0181112
-0.0961533,0.0132822
-0.0160736,0.00409455
0.0425649,-0.00198715
0.205598,-0.0248799
0.387916,-0.0524149
0.519319,-0.0776734
0.5352,-0.0848232
0.581564,-0.0807347
0.712355,-0.0981583
0.875076,-0.109743
1.02197,-0.114357
1.10917,-0.110262
1.11082,-0.0832089
1.17463,-0.0895315
1.26087,-0.0959788
1.22407,-0.0769688
1.09501,-0.0383681
1.0161,-0.0241189
0.981051,-0.00837419
0.889527,0.0176424
0.776039,0.0495724
0.642022,0.0811226
0.552397,0.0988832
0.441159,0.100162
0.298826,0.0920047
0.169939,0.0806134
0.0637287,0.0628658
-0.0674568,0.0672382
-0.196561,0.0657894
-0.430181,0.0793365
-0.621663,0.0796049
-0.679921,0.054849
-0.657568,0.0143154
-0.711851,0.00303038
-0.901274,0.00983837
-1.04488,0.0228612
-1.00658,0.0119266
-1.02009,0.0100044
-1.11432,0.0135109
-1.19965,0.0244177
-1.17138,0.0306186
-1.16018,0.0430264
-1.15498,0.0630032
-1.14088,0.0783092
-1.09139,0.0800675
-1.02928,0.081583
-0.968359,0.0784102
-0.888836,0.0807218
-0.802228,0.0741882
-0.691591,0.0651831
-0.575757,0.0540441
-0.471608,0.0482427
-0.329226,0.0395379
-0.180769,0.0231993
-0.0822841,0.0187038
0.0362964,0.00123176
0.141522,-0.0151642
0.3557,-0.0511336
0.557088,-0.0870592
0.669491,-0.103403
0.633093,-0.077966
0.645827,-0.0638669
0.81824,-0.0828202
0.986908,-0.0958376
0.98793,-0.0784996
0.976646,-0.0576045
1.03271,-0.0544543
1.12347,-0.066871
1.15318,-0.0681995
1.12033,-0.0579717
1.08718,-0.050522
1.08279,-0.042477
1.07049,-0.0379897
1.01149,-0.0281525
0.923703,-0.0243793
0.858889,-0.0227141
0.787286,-0.0227657
0.688169,-0.0167867
0.579286,-0.0087857
0.453934,0.00253589
0.378076,-5.5084e-05
0.251959,0.00482057
0.099083,0.0102288
-0.0313251,0.0211981
-0.100637,0.0225718
-0.278868,0.0377306
-0.493826,0.0511913
-0.605338,0.0578692
-0.54357,0.037773
-0.564823,0.0319589
-0.769067,0.0511598
-0.923245,0.0731141
-0.883938,0.0651775
-0.907485,0.0598949
-1.01058,0.0655271
-1.08039,0.0729417
-1.06061,0.0668629
-1.05013,0.0635132
-1.07152,0.0694935
-1.06167,0.0648425
-1.0202,0.0613475
-0.969533,0.0515975
-0.922753,0.0546708
-0.864284,0.0488827
-0.79423,0.0497361
-0.692746,0.0357485
-0.621775,0.0331284
-0.492876,0.0158277
-0.394433,0.0108487
-0.278802,0.000654681
-0.139521,-0.00889573
-0.0014551,-0.0254034
0.0667261,-0.0315537
0.219776,-0.0480889
0.415852,-0.0678173
0.557924,-0.0793878
0.554077,-0.0603752
0.552169,-0.0431285
0.668876,-0.0525485
0.831448,-0.0693562
0.88202,-0.0674334
0.895384,-0.0567343
0.929205,-0.058463
0.970118,-0.0585671
1.02427,-0.0656391
1.02463,-0.0666881
1.00876,-0.0644044
0.993349,-0.0634628
0.98555,-0.0618064
0.939884,-0.0533814
0.884049,-0.0470748
0.817894,-0.0441279
0.768382,-0.044372
0.69191,-0.0383755
0.590768,-0.021945
0.503834,-0.0115893
0.397689,-0.00311599
0.275014,0.00724833
0.188567,0.0141503
0.0728938,0.0311764
-0.0498773,0.0470866
-0.15977,0.0607521
-0.325678,0.0706856
-0.500684,0.0808777
-0.544597,0.0649097
-0.538292,0.0410783
-0.573724,0.033425
-0.680748,0.0409394
-0.823361,0.0530345
-0.885682,0.0540366
-0.851046,0.038086
-0.873449,0.033096
-0.968794,0.0454667
-0.98618,0.0541109
-0.96115,0.0548316
-0.935621,0.0574256
-0.941061,0.0609228
-0.903746,0.0593383
-0.859503,0.0551599
-0.803167,0.0601844
-0.746668,0.0617116
-0.692491,0.0627599
-0.595517,0.0520343
-0.525199,0.0455789
-0.436718,0.0405629
-0.299161,0.0249572
-0.202895,0.0210145
-0.096622,0.00919526
0.00846677,-0.00348653
0.111041,-0.021287
0.24751,-0.0456658
0.43646,-0.0774359
0.522501,-0.0910375
0.52274,-0.0711243
0.518522,-0.0530883
0.590011,-0.0596958
0.737965,-0.0755022
0.852909,-0.0784761
0.835831,-0.0553984
0.810181,-0.0420248
0.862628,-0.0413102
0.937438,-0.0567641
0.937204,-0.0538759
0.905814,-0.0487581
0.860448,-0.0387434
0.862369,-0.0389612
0.836206,-0.0368661
0.788474,-0.0372846
0.709943,-0.0394042
0.641948,-0.0372463
0.601707,-0.0371521
0.499515,-0.0269206
0.405178,-0.0180697
0.3283,-0.016985
0.229091,-0.0184345
0.109746,-0.0135979
0.00998701,-0.00578763
-0.0670105,0.0048006
-0.167796,0.0136269
-0.352074,0.0345773
-0.490112,0.051145
-0.506095,0.0562411
-0.435003,0.0434658
-0.4934,0.04841
-0.695228,0.0722411
-0.799537,0.0803433
-0.725246,0.0578124
-0.719743,0.0470243
-0.832521,0.0577692
-0.878449,0.0626688
-0.841871,0.0525432
-0.835991,0.0547675
-0.8296,0.0492034
-0.837044,0.0536999
-0.779518,0.0428266
-0.743538,0.042874
-0.699223,0.0465462
-0.626838,0.0379505
-0.59152,0.0418176
-0.497562,0.034188
-0.406485,0.0291275
-0.350247,0.0294778
-0.276201,0.0312427
-0.15449,0.020916
-0.0404386,0.0120754
0.0321196,0.0033493
0.0940219,0.000240019
0.255819,-0.0176234
0.410228,-0.0363601
0.4972,-0.0574475
0.426518,-0.0490335
0.419602,-0.0457625
0.575741,-0.0700066
0.70586,-0.0814831
0.692303,-0.0658549
0.674377,-0.0525044
0.7259,-0.0531951
0.809891,-0.0683301
0.806832,-0.0645574
0.796857,-0.0615217
0.781645,-0.0581195
0.758494,-0.0493196
0.76091,-0.0457596
0.707095,-0.0382452
0.65766,-0.0351386
0.621869,-0.0371985
0.557628,-0.0312076
0.503093,-0.0224982
0.444208,-0.0130621
0.338395,0.00176948
0.251061,0.00604596
0.182081,0.0116815
0.114639,0.0159813
0.0227862,0.0286053
-0.0411974,0.031596
-0.157179,0.0379323
-0.314083,0.0481071
-0.442797,0.0555676
-0.457647,0.0508788
-0.430155,0.0344262
-0.456108,0.0326161
-0.549339,0.0415069
-0.64384,0.0533201
-0.672069,0.0539854
-0.673643,0.0469364
-0.68079,0.0440621
-0.705183,0.0446004
-0.749034,0.0593528
-0.724949,0.0639141
-0.705108,0.0581509
-0.706115,0.0597547
-0.651306,0.0490788
-0.615715,0.0435144
-0.593727,0.0491423
-0.52982,0.0478282
-0.473413,0.0417414
-0.437998,0.0402931
-0.35232,0.0287935
-0.253529,0.0189879
-0.183521,0.0123603
-0.141612,0.00947608
-0.0743892,-0.000306018
-0.00885384,-0.00965879
0.0819789,-0.02474
0.205286,-0.0408867
0.354541,-0.0642362
0.426406,-0.0733409
0.411686,-0.0625528
0.396322,-0.0454834
0.434274,-0.0483837
0.535847,-0.056407
0.632157,-0.0627778
0.637043,-0.0500822
0.619621,-0.0415614
0.605324,-0.0339539
0.648363,-0.0443565
0.707205,-0.0564877
0.664008,-0.0538209
0.604065,-0.0414277
0.614427,-0.0413211
0.607503,-0.0419388
0.547108,-0.0352042
0.502741,-0.0388074
0.451125,-0.0387278
0.392948,-0.0335923
0.346499,-0.0245971
0.304852,-0.0202867
0.218222,-0.0136815
0.11863,-0.00668209
0.0489891,0.000824641
0.0432343,0.00113622
-0.0229637,0.0110647
-0.137416,0.0239825
-0.271712,0.0423059
-0.393434,0.0551122
-0.437027,0.057227
-0.346766,0.0397608
-0.331213,0.0312056
-0.467634,0.0463795
-0.58336,0.0632123
-0.549118,0.0554194
-0.510163,0.0399379
-0.536797,0.0347937
-0.607191,0.0412587
-0.612673,0.0480463
-0.566604,0.0443063
-0.555546,0.044621
-0.566163,0.0492225
-0.525156,0.039715
-0.478177,0.0340143
-0.475125,0.039599
-0.439059,0.0410483
-0.360941,0.0356884
-0.299679,0.029392
-0.276616,0.0310711
-0.229345,0.0285194
-0.153653,0.0242217
-0.0722179,0.0148308
-0.0423697,0.015032
-0.00112543,0.00900321
0.073936,0.000501663
0.186423,-0.0170322
0.314919,-0.035091
0.394938,-0.0527515
0.332793,-0.0488619
0.287025,-0.042208
0.365625,-0.0525844
0.475869,-0.0668116
0.488387,-0.0618794
0.457423,-0.0468055
0.448475,-0.0363947
0.503076,-0.042953
0.56321,-0.0529958
0.527317,-0.0480783
0.455811,-0.0402367
0.464665,-0.0387155
0.514801,-0.0391905
0.465719,-0.030951
0.373709,-0.0186191
0.349441,-0.01757
0.38035,-0.0249121
0.330079,-0.0198357
0.226134,-0.00926645
0.166398,-0.00427672
0.150486,-0.00515679
0.128902,-0.00697586
0.0852467,-0.00681023
0.0173207,0.000792663
-0.0448928,0.00527715
-0.136523,0.0136588
-0.251671,0.0231231
-0.340796,0.0360387
-0.331342,0.0349323
-0.280628,0.0273195
-0.289626,0.0286735
-0.343536,0.0382035
-0.382842,0.044144
-0.401291,0.0441598
-0.412952,0.0438083
-0.43139,0.0485965
-0.425981,0.0463447
-0.415336,0.0484857
-0.420141,0.0526211
-0.434439,0.0552597
-0.414368,0.0500494
-0.363592,0.0368468
-0.320616,0.0304346
-0.310923,0.0295141
-0.313525,0.0323797
-0.273238,0.0280476
-0.209358,0.0188016
-0.157371,0.00987804
-0.124077,0.00577652
-0.115179,0.00427837
-0.109183,0.00570589
-0.0490495,-0.0043527
0.0285462,-0.0138451
0.100297,-0.0223282
0.198388,-0.0336788
0.291675,-0.0443649
0.302311,-0.0457062
0.235585,-0.0357592
0.198681,-0.0316279
0.231049,-0.0348526
0.33075,-0.0446381
0.383089,-0.0457039
0.334441,-0.0315455
0.321621,-0.0300268
0.351407,-0.0357259
0.35646,-0.040857
0.332577,-0.0401478
0.322124,-0.0404206
0.330778,-0.0407785
0.317971,-0.0352834
0.275286,-0.0277336
0.237784,-0.0259751
0.225178,-0.0290351
0.20696,-0.0290705
0.180047,-0.0254539
0.150133,-0.0186131
0.128733,-0.0156445
0.108026,-0.0126494
0.0809895,-0.0105594
0.0399499,-0.00700368
-0.0103296,-0.000913853
-0.0755803,0.00606507
-0.15336,0.0174968
-0.234263,0.0272335
-0.28342,0.0342889
-0.236008,0.0311916
-0.153199,0.0212565
-0.172388,0.0235401
-0.298637,0.0371941
-0.33885,0.0422702
-0.232831,0.0252502
-0.191573,0.0191565
-0.238261,0.0257894
-0.29036,0.035519
-0.27071,0.0382485
-0.245879,0.0372229
-0.233782,0.0343631
-0.22021,0.0328178
-0.202516,0.0315352
-0.176544,0.0302559
-0.15489,0.0296411
-0.154882,0.0279325
-0.17141,0.0288171
-0.145068,0.021767
-0.087752,0.012347
-0.0623393,0.0111134
-0.0678593,0.012033
-0.0352012,0.00782075
0.0133288,-7.73003e-05
0.062832,-0.00980343
0.123825,-0.0162075
0.184062,-0.0243942
0.225679,-0.0299745
0.212888,-0.0334
0.128622,-0.0253277
0.0956404,-0.0265506
0.176449,-0.0351712
0.276894,-0.0459784
0.234256,-0.0379418
0.13823,-0.0204024
0.101283,-0.012287
0.157233,-0.0194757
0.275473,-0.0348518
0.262984,-0.0351957
0.11276,-0.0177597
0.0556628,-0.00624563
0.161984,-0.0169203
0.216034,-0.0272497
0.147613,-0.021625
0.0711257,-0.0157882
0.0626864,-0.013105
0.100285,-0.0146497
0.0996619,-0.0151614
0.0691317,-0.012259
0.0262901,-0.0111961
-0.00286796,-0.00893876
-0.0343934,-0.00423318
-0.0796783,0.00241326
-0.122253,0.00636162
-0.157631,0.0112941
-0.178553,0.0148624
-0.154337,0.0205504
-0.0829404,0.0130622
-0.0702991,0.0139138
-0.128624,0.0200484
-0.15848,0.0254085
-0.135388,0.0224761
-0.107346,0.0204414
-0.105132,0.0223417
-0.121768,0.0270143
-0.127131,0.0291775
-0.106688,0.025937
-0.0833068,0.021084
-0.0765269,0.017433
-0.0806742,0.0177163
-0.0746517,0.0171698
-0.0643783,0.0154604
-0.0522822,0.013842
-0.0411511,0.0100144
-0.0245026,0.00460989
-0.00584116,-0.00175305
0.015889,-0.0048925
0.0385219,-0.00682499
0.0626236,-0.0112462
0.0828272,-0.0140573
0.0936519,-0.017324
0.0986494,-0.0164516
0.100194,-0.0154904
0.0891999,-0.0134611
0.0601771,-0.0114037
0.047129,-0.0115782
0.0455472,-0.0115976
0.0343546,-0.0120661
0.0203309,-0.0115843
0.00733934,-0.00973835
-0.00662143,-0.00995047
-0.0213064,-0.0129747
-0.0385485,-0.0163486
-0.0505976,-0.0144596
-0.0603137,-0.0133715
-0.0640148,-0.0124358
-0.0625701,-0.0107733
-0.0580555,-0.0108003
-0.051507,-0.0113365
-0.0435369,-0.00986081
-0.029785,-0.00925344
-0.0197824,-0.00548551
-0.0103751,-0.00215032
-0.00129326,-0.000931765
0.00758543,0.00191467
0.0157801,0.00428635
0.0195587,0.00598883
0.0223213,0.00756721
0.0234195,0.00592689
0.0205666,0.00478389
0.015632,0.00464757
0.00753255,0.00359143
0.00108835,0.00245008
-0.00621866,0.00134851
-0.00881171,-0.00192652
-0.0124698,-0.0053846
-0.0135153,-0.0104777
-0.0140701,-0.0118913
-0.0143937,-0.0121752
-0.011644,-0.0124764
-0.0101294,-0.0100728
-0.00609167,-0.0097825
-0.00322667,-0.00715228
0.00277486,-0.00330595
0.00683752,-0.000108931
0.0109912,0.00402605
0.0158686,0.00589077
0.0165731,0.00731363
0.0155423,0.00739272
0.0143467,0.00790182
0.0120094,0.00847701
0.00915145,0.00785647
0.00516605,0.00570488
0.00242678,0.00258871
0.00148995,-0.000485476
-0.00109888,-0.00345366
-0.00482885,-0.00753904
-0.00464827,-0.0109072
-0.00300266,-0.013403
-0.00389474,-0.0135721
-0.0028979,-0.0142972
-0.00238368,-0.0135803
-0.00067945,-0.0111944
-0.000586204,-0.0066451
0.000430104,-0.00266498
0.000992459,-0.000480844
0.000467517,0.00127946
-0.000470874,0.00452633
0.000641165,0.0079769
-0.00128856,0.00896708
-0.00107024,0.00669725
-0.00142771,0.006539
-0.00140997,0.00431092
-0.00156161,0.00102121
-0.00241931,-0.00287227
-0.00178091,-0.0058269
-0.00108327,-0.00893834
-0.00196682,-0.0122898
-0.00439916,-0.0148963
-0.00701226,-0.0160763
-0.00675068,-0.015268
-0.0064838,-0.0146086
-0.00526481,-0.0138104
-0.00581371,-0.0116163
-0.00577524,-0.00774024
-0.00298032,-0.00488263
-0.00393876,-0.00103398
-0.00278231,-0.000971015
-0.000314851,0.00192191
0.00140972,0.00450661
0.00094173,0.00639751
0.00212549,0.00415023
0.0022166,0.00222219
0.00195333,0.001305
0.000704834,-0.00170064
-3.08226e-05,-0.00400179
-0.000212204,-0.00675487
0.000902054,-0.00865135
-0.000615399,-0.00874002
0.000150814,-0.00824797
0.0018489,-0.00756079
0.000824899,-0.00805356
0.00212357,-0.00816559
0.00144584,-0.00505389
0.00114415,-0.00238872
0.00291284,-0.00151272
0.00425404,-0.000663408
0.00514335,0.00131334
0.00706323,0.00238348
0.008764,0.00324369
0.00940337,0.00507138
0.0095277,0.00555664
0.00919296,0.00487092
0.00859044,0.00446409
0.0106536,0.00563457
0.00889846,0.00472096
0.00855474,0.00510496
0.00571516,0.00279265
0.00597346,0.00234363
0.00515315,0.00191814
0.00606329,0.00231627
0.00653597,0.00170655
0.00540264,0.00241721
0.00607362,0.00461127
0.00803194,0.00703032
0.00694047,0.00729809
0.0079244,0.00893322
0.00986008,0.0114658
0.0119173,0.0120349
0.0115815,0.0119537
0.0103096,0.0117931
0.00805557,0.00995765
0.00629733,0.00736626
0.00480984,0.00630944
0.00310273,0.00357445
0.00325015,0.00165308
0.00344881,0.000279063
0.00444733,-0.00153475
0.00362339,-0.00245297
0.00371507,-0.000540994
0.00296439,-0.000656035
0.00306871,-0.000574021
0.0041558,0.000872064
0.00483472,0.00126176
0.00466028,-0.000763574
0.00825202,0.000755438
0.00898907,-2.21441e-05
0.00686108,0.00161129
0.00569328,0.00238832
0.00608832,0.00238378
0.00570743,0.00282481
0.00612013,0.00108553
0.00566776,-0.000259536
0.00508781,-0.00099244
0.00504037,-0.0039457
0.00363382,-0.00455302
0.00399475,-0.00582526
0.00231332,-0.00699414
0.00218555,-0.00776149
0.00197804,-0.00809031
0.00245633,-0.00901228
0.000746125,-0.00914487
0.00132004,-0.007585
0.00103846,-0.00682381
0.00189072,-0.00479765
0.00483146,-0.00528643
0.00611919,-0.00528481
0.00832952,-0.00628328
0.00861093,-0.0055615
0.00858771,-0.00624146
0.00791671,-0.00688968
0.00835446,-0.00612529
0.00706381,-0.006839
0.00511061,-0.00647934
0.00482538,-0.00762605
0.00232862,-0.00921765
0.00363161,-0.00965825
0.000930114,-0.0111514
-0.000674437,-0.0105736
-0.000744735,-0.0112281
-0.00131578,-0.0109098
-0.00221977,-0.0102193
-0.000439358,-0.00958589
-0.000450407,-0.00734668
0.000224092,-0.00648247
0.00101925,-0.00595936
0.0022086,-0.00347247
0.00247414,-0.00247499
0.00229528,-0.00273021
0.0018244,-0.00105491
0.00146839,-0.00238856
0.00165132,-0.00253333
-4.12278e-06,-0.00365912
-0.000985554,-0.00417132
-0.00110105,-0.00408158
-0.00332285,-0.00580065
-0.00478444,-0.00744668
-0.00680665,-0.00710471
-0.00696819,-0.00543824
-0.00546948,-0.0039652
-0.00654952,-0.00335888
-0.00470675,-0.0019352
-0.00375803,0.000124972
-0.001989,0.00107374
-0.00130396,0.000193527
-0.000103135,0.000770444
-0.000901991,0.000243568
0.000526537,0.000323677
-0.000455058,0.0012831
-0.00347786,0.00179745
-0.00226878,0.000469945
-0.000675133,0.00031043
-0.00015953,-0.000875002
0.000693801,-0.000269854
-0.00197985,0.000239225
-0.002524,-0.00195175
-0.00263601,-0.0025288
-0.00197728,-0.00459968
-0.00125666,-0.004767
0.000575769,-0.00434015
0.00204411,-0.00372117
0.00328602,-0.00436194
0.00300972,-0.00428312
0.0034349,-0.00390612
0.0034075,-0.00279904
0.00399165,-0.00286314
0.00419443,-0.00349816
0.00304117,-0.00377453
0.0025985,-0.00321687
0.00255088,-0.00494901
0.00283122,-0.00501916
0.00536977,-0.00669278
0.00410159,-0.00721178
0.0018612,-0.0084885
0.00278841,-0.0105715
0.00385487,-0.0130047
0.0040785,-0.0132035
0.00528214,-0.0117896
0.00601229,-0.012372
0.00670923,-0.0110414
0.00858423,-0.0100627
0.0112561,-0.00738809
0.0120232,-0.00698437
0.0135859,-0.00757954
0.0142797,-0.00597874
0.0132288,-0.0051088
0.0135564,-0.00479725
0.0167843,-0.00556824
0.0166222,-0.00550337
0.0137927,-0.00802441
0.0137702,-0.0097988
0.0154072,-0.0115075
0.0136421,-0.0122602
0.0118207,-0.0131983
0.0111877,-0.0140298
0.00908337,-0.0148627
0.00833413,-0.0164454
0.00973141,-0.0169321
0.00965912,-0.0170404
0.008029,-0.0166845
0.00663815,-0.0161591
0.00615845,-0.0161886
0.005888,-0.0168199
0.00768626,-0.0163143
0.00936395,-0.016686
0.00913462,-0.0141091
0.00918579,-0.0147137
0.00755156,-0.0148033
0.00620396,-0.0148914
0.00595506,-0.0143621
0.0052117,-0.0155897
0.00516705,-0.0154669
0.00517942,-0.0169044
0.00304984,-0.0162585
0.00239409,-0.016712
0.00175246,-0.0158626
0.00307237,-0.0157375
0.00322448,-0.0158688
0.00229485,-0.0144736
0.0042067,-0.0134416
0.00191575,-0.0139357
0.00216613,-0.0135085
0.00417559,-0.0138807
0.00597055,-0.014671
0.00677472,-0.0133136
0.00530875,-0.0118232
0.0046854,-0.0126788
0.00250614,-0.0130206
-0.000570497,-0.011353
-0.00165294,-0.0130104
-0.000713441,-0.0126907
-0.000389482,-0.0110172
-0.00186965,-0.0106254
-0.0022333,-0.0120994
-0.00259458,-0.012787
-0.00327094,-0.0119222
-0.00545923,-0.0127528
-0.00452214,-0.010918
-0.00443539,-0.0116439
-0.00429442,-0.00928803
-0.00516354,-0.0077592
-0.00609913,-0.00759213
-0.00690161,-0.00707317
-0.00612081,-0.00780814
-0.00608944,-0.00671653
-0.00631934,-0.00686958
-0.00623457,-0.00608415
-0.0068152,-0.00628816
-0.00693905,-0.00680489
-0.00616496,-0.00916253
-0.00716358,-0.00739675
-0.00350247,-0.0091833
0.0319431,-0.0195608
0.0606264,-0.0233426
0.0855113,-0.0260608
0.115392,-0.0341378
0.135324,-0.0345477
0.137953,-0.0404106
0.142303,-0.0442982
0.159533,-0.0617303
0.198175,-0.0854632
0.255021,-0.112512
0.308537,-0.132251
0.333002,-0.122432
0.369079,-0.127969
0.458329,-0.164591
0.564224,-0.182729
0.61517,-0.165056
0.619576,-0.165716
0.638321,-0.20034
0.693675,-0.221979
0.730973,-0.211651
0.645648,-0.16649
0.511737,-0.104784
0.406117,-0.120705
0.315153,-0.148924
0.196609,-0.0992144
0.0976864,-0.0214381
-0.00214783,0.0147906
-0.0688043,0.0558878
-0.213613,0.118705
-0.392639,0.184166
-0.523116,0.187087
-0.522959,0.103621
-0.509743,0.0992971
-0.544352,0.184171
-0.68144,0.253804
-0.844295,0.258352
-0.875684,0.192824
-0.813807,0.121855
-0.841682,0.162533
-0.901085,0.265327
-0.919834,0.260464
-0.899062,0.160612
-0.867188,0.132928
-0.851037,0.203739
-0.796797,0.219248
-0.786368,0.164478
-0.730134,0.13685
-0.673127,0.146968
-0.606655,0.165651
-0.503196,0.144564
-0.431879,0.103533
-0.374689,0.0987041
-0.25222,0.0834812
-0.100972,0.0516121
0.0047961,0.0268921
0.0303887,0.00793442
0.15501,-0.0324022
0.324136,-0.0936347
0.458606,-0.156138
0.488156,-0.150026
0.429078,-0.095105
0.481892,-0.081413
0.653048,-0.154661
0.757188,-0.163096
0.723261,-0.127317
0.716767,-0.1046
0.802073,-0.150582
0.87616,-0.165656
0.836731,-0.130086
0.827642,-0.100556
0.810878,-0.122842
0.820189,-0.134116
0.796635,-0.125468
0.726724,-0.0975754
0.685365,-0.099027
0.635976,-0.0959551
0.587934,-0.0882604
0.511187,-0.0727974
0.396603,-0.053725
0.338247,-0.0434907
0.294843,-0.0378543
0.169543,-0.0161243
0.0313032,0.0114477
-0.0182676,0.035715
-0.0841692,0.0646176
-0.246624,0.10032
-0.400252,0.12049
-0.465526,0.100217
-0.397156,0.0506232
-0.433474,0.035811
-0.585024,0.0621478
-0.674108,0.0801255
-0.630839,0.0676907
-0.658639,0.0530861
-0.76669,0.0545753
-0.787256,0.0452614
-0.737203,0.0227256
-0.774666,0.0234944
-0.778275,0.0243666
-0.769662,0.022215
-0.734584,0.0187633
-0.674839,0.00730423
-0.663109,0.0128823
-0.618607,0.0171549
-0.546996,0.0192451
-0.501468,0.0269933
-0.415037,0.0316818
-0.338102,0.0352596
-0.284143,0.0419225
-0.196281,0.0406246
-0.0897236,0.0373727
-0.0274196,0.0349824
0.013962,0.0382367
0.13772,0.0250708
0.280993,0.00676537
0.404979,-0.0145825
0.435013,-0.0197454
0.406999,-0.0234223
0.459653,-0.0429365
0.569934,-0.0680882
0.623831,-0.0803619
0.614705,-0.0761493
0.657267,-0.0739572
0.712079,-0.0793952
0.69996,-0.0700833
0.708073,-0.0673261
0.734282,-0.0698021
0.703165,-0.0586777
0.680394,-0.0466948
0.674153,-0.0400373
0.626442,-0.0309082
0.592618,-0.0277152
0.550739,-0.0237356
0.470725,-0.0118091
0.421074,-0.00168338
0.381026,0.00809891
0.292271,0.0227854
0.192785,0.0353574
0.123093,0.0412281
0.0668272,0.0441613
0.0311346,0.0422719
-0.0623436,0.0421458
-0.191272,0.0426223
-0.334092,0.0462089
-0.414256,0.0434395
-0.400999,0.0293291
-0.376319,0.0124035
-0.42759,0.0123789
-0.56207,0.0276577
-0.617339,0.0359028
-0.57483,0.0305944
-0.58356,0.0309024
-0.634724,0.040533
-0.672568,0.0536191
-0.646724,0.0587904
-0.617776,0.0586968
-0.643072,0.0655547
-0.624836,0.0665291
-0.549208,0.052425
-0.540213,0.0551925
-0.536518,0.0618472
-0.446362,0.0476194
-0.370125,0.0356005
-0.355283,0.0345881
-0.31807,0.0315785
-0.213732,0.0149974
-0.118791,0.0053663
-0.0723256,-0.00572741
-0.0719483,-0.00843174
0.0038421,-0.0261083
0.109205,-0.0449759
0.232931,-0.0625495
0.368962,-0.0778836
0.408999,-0.0743785
0.32483,-0.0421363
0.335891,-0.0346777
0.487765,-0.0529063
0.55755,-0.0575561
0.50486,-0.0395766
0.493754,-0.0311536
0.544302,-0.0323759
0.601995,-0.0378698
0.603724,-0.0359858
0.558264,-0.0328676
0.535708,-0.0306694
0.572926,-0.0366329
0.564751,-0.0390114
0.47784,-0.0292946
0.426865,-0.0298824
0.444144,-0.0416823
0.411141,-0.0432258
0.306525,-0.0310146
0.236823,-0.0264393
0.216648,-0.0276638
0.190645,-0.0313926
0.1019,-0.0247915
0.0203508,-0.0138864
-0.0110969,-0.00859635
-0.0829144,0.000850437
-0.200192,0.0173658
-0.306043,0.0317761
-0.354434,0.0454037
-0.290864,0.0396203
-0.303156,0.0411306
-0.416147,0.055824
-0.457754,0.0584711
-0.406387,0.0429942
-0.41605,0.0435169
-0.500911,0.0516325
-0.540872,0.0547686
-0.492059,0.0429529
-0.468059,0.0401519
-0.493924,0.0397321
-0.507782,0.0402382
-0.467817,0.0319582
-0.413731,0.0229908
-0.395996,0.0238226
-0.393617,0.029063
-0.359335,0.0301927
-0.285472,0.0241521
-0.221056,0.0226795
-0.189786,0.0218859
-0.16563,0.0261052
-0.113986,0.0222364
-0.0688216,0.0192201
-0.0293972,0.016398
0.0244698,0.0119096
0.118041,0.00459718
0.228752,-0.00748226
0.320905,-0.0221607
0.312203,-0.0253454
0.269723,-0.0250885
0.28549,-0.0335619
0.35401,-0.0475767
0.395131,-0.0552259
0.373547,-0.0514602
0.367947,-0.0467124
0.427139,-0.0542481
0.464344,-0.0605927
0.415035,-0.0517825
0.367603,-0.0438524
0.399814,-0.0457517
0.448779,-0.049223
0.391088,-0.0322251
0.30043,-0.0184648
0.287258,-0.0196309
0.318271,-0.022289
0.285038,-0.0175016
0.208096,-0.00383207
0.165177,0.00504521
0.139917,0.00905506
0.114693,0.0121588
0.090023,0.0126936
0.0391302,0.0175384
-0.0202634,0.0233573
-0.0926962,0.0281602
-0.188282,0.0342838
-0.274265,0.0367865
-0.292402,0.0314361
-0.228464,0.0197435
-0.198713,0.0137946
-0.256911,0.0204845
-0.350955,0.0330602
-0.336197,0.0299192
-0.287421,0.0218735
-0.315663,0.0269527
-0.35685,0.0382716
-0.334694,0.0438476
-0.317276,0.0474009
-0.331319,0.052619
-0.331889,0.0509403
-0.288455,0.0397797
-0.248224,0.0344519
-0.235663,0.0344012
-0.236357,0.0405548
-0.20353,0.0659944
-0.151902,0.117157
-0.105296,0.208309
-0.0781731,0.30845
-0.0357941,0.336749
0.0273548,0.398153
0.111188,0.445524
0.216047,0.500037
0.301105,0.544593
0.289877,0.63095
0.219297,0.686852
0.197867,0.677218
0.247308,0.661839
0.308528,0.647289
0.293829,0.612856
0.253191,0.614288
0.258419,0.56553
0.293679,0.462462
0.300451,0.442206
0.271707,0.387746
0.243699,0.312284
0.210975,0.22618
0.183904,0.173944
0.173694,0.0623652
0.172206,-0.0357369
0.163658,-0.199285
0.125298,-0.361015
0.084105,-0.490552
0.0651417,-0.524199
0.047935,-0.591894
0.00364863,-0.651036
-0.0609559,-0.787888
-0.131253,-0.810218
-0.215882,-0.880021
-0.265685,-0.928994
-0.215757,-0.992763
-0.157296,-1.02181
-0.172942,-1.04684
-0.234255,-1.01835
-0.260943,-1.02371
-0.215409,-0.985886
-0.187233,-0.990476
-0.225082,-0.914639
-0.272569,-0.875329
-0.247868,-0.819365
-0.205341,-0.767314
-0.209492,-0.646966
-0.210324,-0.552209
-0.181032,-0.461705
-0.152667,-0.365327
-0.161942,-0.293103
-0.181493,-0.16223
-0.145527,-0.0629902
-0.0848727,0.039901
-0.0837148,0.167276
-0.0938297,0.352957
-0.0558231,0.395342
-0.00550352,0.436468
0.0403349,0.541206
0.106206,0.645083
0.170516,0.663408
0.226712,0.754443
0.226568,0.82379
0.135628,0.896981
0.0866653,0.946422
0.154681,0.925002
0.261501,0.948886
0.250688,0.94227
0.138713,1.00233
0.0637247,0.970121
0.144726,0.940614
0.276493,0.838382
0.26095,0.844121
0.105944,0.787288
0.0436265,0.763178
0.144254,0.616104
0.19952,0.562329
0.14996,0.464666
0.0816414,0.370915
0.0712498,0.271722
0.10587,0.201515
0.102553,0.0720275
0.0709537,-0.0176394
0.0456428,-0.121905
0.0198449,-0.281301
-0.0221508,-0.448402
-0.0623406,-0.398212
-0.112561,-0.445982
-0.160834,-0.545092
-0.191578,-0.663012
-0.162087,-0.691036
-0.0726763,-0.799698
-0.0549061,-0.800666
-0.144418,-0.845659
-0.174647,-0.861083
-0.133874,-0.902894
-0.106853,-0.915583
-0.127296,-0.902643
-0.145937,-0.887103
-0.130083,-0.865893
-0.107856,-0.847023
-0.100062,-0.787902
-0.10254,-0.753816
-0.0929545,-0.667808
-0.0891076,-0.638865
-0.0759378,-0.538039
-0.065444,-0.45996
-0.0605706,-0.374547
-0.0503384,-0.282462
-0.0286926,-0.151588
-0.0127719,-0.100598
0.0150218,-0.035401
0.0452501,0.0539985
0.0857385,0.20414
0.12154,0.32706
0.144698,0.401534
0.151398,0.416557
0.116804,0.497811
0.0687792,0.594367
0.0726768,0.688939
0.0820577,0.68662
0.0821648,0.73819
0.0738618,0.7843
0.0693894,0.806147
0.068072,0.844715
0.0553329,0.831547
0.0433705,0.864871
0.0268177,0.838572
0.0131755,0.818665
-0.00128663,0.780805
-0.0110665,0.741648
-0.0201324,0.704121
-0.027783,0.629242
-0.0263271,0.578894
-0.0224217,0.517742
-0.0238137,0.414023
-0.0154994,0.385088
-0.0138954,0.295374
-0.0136985,0.186109
-0.0142123,0.0557332
-0.00460215,0.0183283
0.00236005,-0.0452819
-0.00067639,-0.166735
-0.00937259,-0.346656
-0.0087163,-0.38027
-0.0112798,-0.377598
-0.0263045,-0.420798
-0.0542494,-0.532958
-0.0752412,-0.601906
-0.0951964,-0.651988
-0.11226,-0.658961
-0.139338,-0.721654
-0.161664,-0.71343
-0.187932,-0.759534
-0.210953,-0.782475
-0.230394,-0.768001
-0.251893,-0.77362
-0.268684,-0.727324
-0.287578,-0.742467
-0.300861,-0.697331
-0.309007,-0.641637
-0.312018,-0.597892
-0.309301,-0.533226
-0.308073,-0.476805
-0.304157,-0.439735
-0.295296,-0.335804
-0.289153,-0.253139
-0.280709,-0.172045
-0.274404,-0.13439
-0.264017,-0.0578443
-0.256119,0.0166752
-0.229729,0.167924
-0.196018,0.368267
-0.143741,0.565441
-0.0985917,0.621466
-0.0459738,0.658956
0.0209854,0.767854
0.112022,0.95427
0.208098,1.02694
0.320838,1.1364
0.446028,1.18991
0.587362,1.27725
0.720436,1.28999
0.840258,1.23447
0.944123,1.17467
1.03117,1.10836
1.09883,1.00883
1.15005,0.916046
1.19118,0.831783
1.21328,0.724279
1.22568,0.599443
1.23032,0.487156
1.22161,0.351841
1.19353,0.17867
1.15959,0.0972765
1.10869,-0.0356168
1.04512,-0.185285
0.972708,-0.426847
0.908783,-0.512239
0.8428,-0.58753
0.772591,-0.647271
0.696697,-0.775949
0.617361,-0.905141
0.542768,-0.996184
0.469552,-1.06441
0.387645,-1.10909
0.303425,-1.16512
0.217676,-1.21521
0.136421,-1.21504
0.0591387,-1.24071
-0.0206656,-1.23867
-0.096739,-1.20772
-0.170575,-1.19135
-0.240992,-1.15079
-0.308458,-1.0691
-0.373351,-1.00676
-0.434373,-0.935731
-0.485957,-0.828849
-0.532526,-0.730252
-0.570353,-0.614806
-0.600531,-0.485859
-0.622169,-0.358613
-0.643124,-0.257258
-0.645475,-0.0910202
-0.646372,0.0175793
-0.633174,0.137325
-0.609941,0.305636
-0.574511,0.484455
-0.543034,0.518745
-0.499397,0.611589
-0.454947,0.721351
-0.409043,0.819225
-0.359167,0.909215
-0.31165,1.00179
-0.270197,1.04359
-0.22754,1.1066
-0.189639,1.14303
-0.15891,1.17168
-0.126265,1.18603
-0.0997819,1.19222
-0.0815504,1.17139
-0.0681774,1.15833
-0.0581245,1.10735
-0.0533754,1.04663
-0.0517402,1.0095
-0.0572428,0.910991
-0.0630901,0.847851
-0.0728459,0.708158
-0.0776563,0.645561
-0.0875447,0.504645
-0.0940055,0.407158
-0.10515,0.274375
-0.11478,0.152975
-0.12736,-0.00435148
-0.135569,-0.0951486
-0.149897,-0.264215
-0.168394,-0.428925
-0.177621,-0.503334
-0.184688,-0.530322
-0.201648,-0.656329
-0.218095,-0.754324
-0.23301,-0.844293
-0.250311,-0.925032
-0.269936,-0.979108
-0.292894,-1.05138
-0.314474,-1.07932
-0.335186,-1.1155
-0.359272,-1.13086
-0.383007,-1.13144
-0.407515,-1.12531
-0.429312,-1.09331
-0.455047,-1.07031
-0.476203,-1.03441
-0.492671,-0.95334
-0.512996,-0.914
-0.521872,-0.806488
-0.53337,-0.748784
-0.530991,-0.607844
-0.532322,-0.54362
-0.524924,-0.417692
-0.51666,-0.288287
-0.502658,-0.148314
-0.495069,-0.0855479
-0.48,0.0128164
-0.461873,0.152343
-0.434485,0.35708
-0.408647,0.46115
-0.379158,0.535615
-0.359726,0.572735
-0.335368,0.677672
-0.311397,0.785875
-0.284594,0.869149
-0.26358,0.918834
-0.243257,0.978497
-0.219843,1.00877
-0.198514,1.05343
-0.175439,1.06282
-0.158412,1.07084
-0.140455,1.08246
-0.128359,1.03943
-0.112655,1.03078
-0.100172,0.984425
-0.0922468,0.94252
-0.085801,0.867227
-0.0793939,0.798721
-0.0769052,0.710583
-0.0717182,0.625939
-0.073879,0.495606
-0.0744375,0.442137
-0.0793888,0.313898
-0.0906541,0.194446
-0.100231,0.0486763
-0.106816,-0.0157652
-0.116943,-0.125434
-0.137122,-0.284168
-0.159783,-0.469046
-0.17142,-0.480453
-0.187422,-0.513051
-0.210761,-0.578975
-0.241512,-0.735671
-0.257649,-0.79762
-0.273125,-0.848655
-0.295601,-0.907382
-0.315401,-0.939102
-0.336059,-0.986768
-0.353273,-0.994077
-0.374387,-1.0231
-0.391485,-1.00744
-0.409359,-1.00238
-0.427949,-0.973084
-0.442021,-0.938256
-0.456296,-0.89473
-0.465262,-0.826225
-0.474558,-0.776889
-0.480598,-0.701928
-0.485483,-0.604814
-0.487148,-0.532477
-0.485356,-0.399755
-0.487132,-0.329212
-0.486276,-0.230986
-0.479491,-0.11563
-0.469193,0.0264841
-0.46054,0.100911
-0.441003,0.257769
-0.420822,0.357154
-0.398802,0.417848
-0.378193,0.48851
-0.356833,0.589891
-0.336916,0.63133
-0.311999,0.707203
-0.287131,0.790146
-0.262517,0.847077
-0.240062,0.885453
-0.219511,0.924292
-0.200517,0.924785
-0.180083,0.950237
-0.163777,0.943727
-0.144853,0.947272
-0.132876,0.92155
-0.122382,0.888212
-0.111744,0.859961
-0.105173,0.796559
-0.0990618,0.740292
-0.097968,0.662166
-0.0951983,0.579953
-0.0941548,0.519982
-0.096014,0.433045
-0.105154,0.286295
-0.10648,0.240989
-0.11094,0.145945
-0.118379,0.060629
-0.127141,-0.0500084
-0.139621,-0.176904
-0.159451,-0.37721
-0.169003,-0.41051
-0.17937,-0.431683
-0.199803,-0.492824
-0.222844,-0.59141
-0.235704,-0.638391
-0.256575,-0.749454
-0.271515,-0.771019
-0.290094,-0.7991
-0.307295,-0.842684
-0.323083,-0.860739
-0.341708,-0.900991
-0.353097,-0.875117
-0.371034,-0.893421
-0.383972,-0.851527
-0.399601,-0.858393
-0.410541,-0.788164
-0.42405,-0.77255
-0.431394,-0.690433
-0.439543,-0.646847
-0.447329,-0.578304
-0.448758,-0.485963
-0.449371,-0.395544
-0.449706,-0.342686
-0.446945,-0.227957
-0.440321,-0.128517
-0.431498,-0.024862
-0.426116,0.0196805
-0.413059,0.13185
-0.396688,0.271122
-0.37473,0.401382
-0.359921,0.387117
-0.341331,0.423561
-0.320065,0.518747
-0.294988,0.635636
-0.278588,0.655677
-0.256827,0.693426
-0.239438,0.748795
-0.218725,0.774369
-0.200634,0.797448
-0.181485,0.827552
-0.168809,0.80374
-0.153535,0.823169
-0.142979,0.785275
-0.127798,0.790198
-0.120679,0.743666
-0.112094,0.71647
-0.105401,0.663039
-0.104118,0.576114
-0.0983003,0.555446
-0.0977374,0.473498
-0.102057,0.381691
-0.10276,0.311046
-0.105251,0.249312
-0.112527,0.134948
-0.116361,0.0684216
-0.11879,0.0102163
-0.127896,-0.0841422
-0.147094,-0.238776
-0.162299,-0.364932
-0.171425,-0.382416
-0.182962,-0.378355
-0.204529,-0.456423
-0.223704,-0.543836
-0.240296,-0.615977
-0.249636,-0.62029
-0.269157,-0.690463
-0.282665,-0.698534
-0.298976,-0.71089
-0.315286,-0.752913
-0.327658,-0.748725
-0.341186,-0.762357
-0.354606,-0.744196
-0.364603,-0.706417
-0.374173,-0.69502
-0.380624,-0.641635
-0.389497,-0.618902
-0.39403,-0.572222
-0.396028,-0.476952
-0.400273,-0.454406
-0.401411,-0.38415
-0.398374,-0.293349
-0.395868,-0.186852
-0.39638,-0.156893
-0.391182,-0.100351
-0.387345,-0.0431511
-0.375273,0.0562435
-0.360705,0.182394
-0.343436,0.336156
-0.33024,0.358679
-0.315632,0.367507
-0.304581,0.390426
-0.286837,0.467839
-0.267315,0.537618
-0.246359,0.606975
-0.232461,0.614327
-0.219993,0.619841
-0.201962,0.659816
-0.186881,0.677619
-0.173709,0.670878
-0.159409,0.689199
-0.152854,0.665114
-0.144238,0.640686
-0.13419,0.644338
-0.130274,0.591479
-0.125675,0.565402
-0.123015,0.525052
-0.125794,0.44894
-0.12584,0.376634
-0.120174,0.360673
-0.123907,0.28823
-0.131605,0.20852
-0.138499,0.110829
-0.138478,0.0750717
-0.138245,0.0467913
-0.144722,-0.025183
-0.157512,-0.143203
-0.170871,-0.276937
-0.181639,-0.374695
-0.18473,-0.328509
-0.195775,-0.325718
-0.213202,-0.387793
-0.231407,-0.488223
-0.243485,-0.53181
-0.250639,-0.551241
-0.259671,-0.539614
-0.278057,-0.590651
-0.294389,-0.610283
-0.303686,-0.59374
-0.314277,-0.610043
-0.324051,-0.614492
-0.332419,-0.562628
-0.342277,-0.552561
-0.35102,-0.548017
-0.35492,-0.491268
-0.360222,-0.458503
-0.364963,-0.426762
-0.3656,-0.364498
-0.363381,-0.275415
-0.365278,-0.245114
-0.362742,-0.205104
-0.361908,-0.145566
-0.355369,-0.0601295
-0.353772,-0.0371493
-0.347222,0.0239742
-0.338852,0.120102
-0.323457,0.252276
-0.313012,0.304823
-0.301229,0.303185
-0.28972,0.32988
-0.274037,0.371298
-0.264109,0.388312
-0.250805,0.425474
-0.236964,0.479275
-0.220572,0.52812
-0.212657,0.524175
-0.205259,0.496797
-0.193502,0.518599
-0.178133,0.55043
-0.172921,0.519062
-0.167684,0.479422
-0.156706,0.496672
-0.148091,0.488111
-0.144043,0.428481
-0.144329,0.367944
-0.138949,0.375997
-0.139057,0.340656
-0.142008,0.265665
-0.146738,0.181302
-0.143479,0.162252
-0.143774,0.145056
-0.144376,0.111631
-0.151438,0.0411861
-0.157174,-0.0191982
-0.167418,-0.113726
-0.179784,-0.223548
-0.19319,-0.315714
-0.202275,-0.30314
-0.216822,-0.34026
-0.238133,-0.437311
-0.263572,-0.55711
-0.281345,-0.642808
-0.303904,-0.769433
-0.314743,-0.794902
-0.32489,-0.870134
-0.328927,-0.902202
-0.330467,-0.925312
-0.325739,-0.883059
-0.324186,-0.812587
-0.327527,-0.757805
-0.334909,-0.677105
-0.352294,-0.643187
-0.366641,-0.546407
-0.386682,-0.492608
-0.399689,-0.392024
-0.410546,-0.282894
-0.415304,-0.161051
-0.422996,-0.119007
-0.425263,-0.0485979
-0.424539,0.0438735
-0.411784,0.198488
-0.396469,0.344326
-0.374825,0.439248
-0.359057,0.446712
-0.338824,0.484098
-0.309,0.567283
-0.269602,0.699291
-0.237023,0.731802
-0.206187,0.749719
-0.173853,0.799033
-0.147518,0.820836
-0.121678,0.859285
-0.10226,0.854496
-0.0818366,0.872662
-0.067371,0.868022
-0.0603761,0.825844
-0.0530418,0.801471
-0.0480009,0.752938
-0.0454413,0.73179
-0.0501865,0.65424
-0.0554754,0.601026
-0.0586736,0.537077
-0.0678181,0.432348
-0.0667738,0.398517
-0.0750323,0.309231
-0.0854528,0.197097
-0.0961093,0.0637873
-0.0922317,0.0134568
-0.0924819,-0.0417164
-0.104552,-0.161908
-0.119236,-0.338727
-0.127823,-0.381862
-0.133045,-0.390096
-0.143401,-0.421449
-0.164223,-0.527883
-0.178074,-0.618791
-0.191127,-0.684007
-0.198171,-0.675318
-0.218004,-0.731172
-0.233807,-0.737886
-0.25536,-0.774525
-0.273124,-0.80549
-0.288154,-0.789837
-0.309192,-0.79791
-0.325687,-0.754967
-0.343242,-0.763644
-0.353249,-0.715845
-0.361527,-0.667982
-0.36834,-0.622086
-0.374898,-0.550405
-0.37971,-0.496639
-0.382202,-0.446258
-0.378659,-0.343375
-0.376915,-0.270746
-0.371396,-0.199554
-0.363712,-0.133443
-0.350981,-0.0341125
-0.343013,0.0240678
-0.329385,0.134539
-0.312488,0.2612
-0.291513,0.380262
-0.280062,0.384203
-0.26515,0.40626
-0.253164,0.449707
-0.236701,0.523495
-0.222467,0.594969
-0.201618,0.668823
-0.191165,0.669712
-0.17819,0.663184
-0.159452,0.705923
-0.145792,0.711592
-0.132397,0.729021
-0.118633,0.737854
-0.11122,0.689458
-0.10011,0.676957
-0.08875,0.652089
-0.0809124,0.61137
-0.0701354,0.598588
-0.0683253,0.518307
-0.0657847,0.45595
-0.0632095,0.407671
-0.0616955,0.334797
-0.0657789,0.237294
-0.0711995,0.179994
-0.0723491,0.119859
-0.0749922,0.0867857
-0.0798579,0.0177286
-0.0894361,-0.0779548
-0.105394,-0.222594
-0.120103,-0.334656
-0.133572,-0.373178
-0.146961,-0.365314
-0.166503,-0.396095
-0.181525,-0.439074
-0.197984,-0.530392
-0.211499,-0.587018
-0.223755,-0.613607
-0.231433,-0.590998
-0.248881,-0.637631
-0.261426,-0.649872
-0.270445,-0.6375
-0.282924,-0.658096
-0.293669,-0.637974
-0.302021,-0.601687
-0.312195,-0.594304
-0.319284,-0.556086
-0.325378,-0.508326
-0.331697,-0.491819
-0.335574,-0.426556
-0.334187,-0.35379
-0.335276,-0.28686
-0.335865,-0.255131
-0.334334,-0.184137
-0.331492,-0.121649
-0.326105,-0.0468552
-0.323689,-0.00794894
-0.312978,0.0748339
-0.299609,0.188391
-0.283478,0.320428
-0.273142,0.313468
-0.260491,0.304106
-0.24523,0.356634
-0.226115,0.442518
-0.214082,0.470745
-0.202876,0.474696
-0.187726,0.516883
-0.168413,0.570886
-0.155852,0.573232
-0.146592,0.550642
-0.133466,0.577729
-0.121926,0.590485
-0.11613,0.550378
-0.107673,0.523401
-0.0984178,0.537328
-0.0939762,0.498783
-0.0928726,0.441424
-0.0893423,0.414498
-0.088913,0.388576
-0.0943246,0.31728
-0.0956879,0.256709
-0.0954757,0.204279
-0.0971495,0.173634
-0.100389,0.112495
-0.102391,0.0791587
-0.104565,0.0244627
-0.110058,-0.0486736
-0.120056,-0.162823
-0.133803,-0.28989
-0.142636,-0.338598
-0.148413,-0.277392
-0.159583,-0.284182
-0.174911,-0.344934
-0.18845,-0.41638
-0.196901,-0.416406
-0.206694,-0.440943
-0.221845,-0.486871
-0.235871,-0.509077
-0.242304,-0.47249
-0.251056,-0.468733
-0.260687,-0.501467
-0.271271,-0.499195
-0.275448,-0.452651
-0.280259,-0.435323
-0.287162,-0.443116
-0.289583,-0.407854
-0.290427,-0.347385
-0.288888,-0.299495
-0.292139,-0.287801
-0.291197,-0.239641
-0.287978,-0.183225
-0.28413,-0.113648
-0.285877,-0.104172
-0.284931,-0.0876825
-0.280947,-0.0370097
-0.270841,0.0456614
-0.259047,0.143245
-0.246236,0.258619
-0.2388,0.262394
-0.231632,0.217106
-0.221047,0.246089
-0.205733,0.304101
-0.191961,0.340654
-0.178105,0.381222
-0.170079,0.390109
-0.159151,0.380876
-0.146062,0.393393
-0.134033,0.411719
-0.124476,0.429609
-0.117955,0.422121
-0.112887,0.388366
-0.104487,0.357548
-0.0955115,0.375846
-0.0888686,0.37551
-0.0906008,0.330903
-0.094275,0.270714
-0.0918815,0.238046
-0.0876287,0.222129
-0.0868871,0.203744
-0.0911124,0.156968
-0.0901875,0.118766
-0.0910612,0.0930713
-0.0914939,0.0723636
-0.0975465,0.0235408
-0.102242,-0.0377285
-0.11337,-0.128368
-0.123266,-0.231864
-0.12769,-0.281601
-0.129725,-0.196749
-0.136639,-0.161406
-0.151153,-0.244685
-0.165719,-0.343704
-0.169128,-0.316928
-0.175023,-0.287085
-0.184504,-0.295632
-0.195191,-0.311398
-0.204488,-0.324427
-0.210314,-0.348735
-0.21374,-0.340863
-0.216341,-0.308384
-0.218195,-0.278662
-0.220505,-0.269174
-0.22604,-0.274184
-0.228798,-0.277059
-0.227788,-0.242465
-0.22749,-0.186484
-0.225128,-0.162047
-0.223588,-0.142505
-0.22537,-0.142278
-0.222916,-0.12394
-0.220861,-0.0898175
-0.217561,-0.0382708
-0.214368,0.00435045
-0.208124,0.0645534
-0.201471,0.134291
-0.190324,0.202659
-0.18516,0.193426
-0.182269,0.13712
-0.17178,0.169829
-0.156304,0.242359
-0.149858,0.24225
-0.145591,0.213825
-0.137232,0.224836
-0.128634,0.239116
-0.120445,0.247107
-0.113836,0.243876
-0.110044,0.23187
-0.103985,0.214102
-0.0986979,0.212245
-0.0938073,0.220551
-0.094009,0.202064
-0.0929795,0.189578
-0.0917575,0.185572
-0.0922523,0.173965
-0.0920783,0.153408
-0.0930869,0.128957
-0.094065,0.123583
-0.0930514,0.112094
-0.0951174,0.0876795
-0.0979656,0.052501
-0.0998835,0.0242273
-0.104041,-0.0186174
-0.108382,-0.0698827
-0.117044,-0.138723
-0.124666,-0.195424
-0.125522,-0.178035
-0.127591,-0.107828
-0.135265,-0.0973735
-0.147294,-0.172862
-0.156156,-0.227516
-0.157915,-0.168854
-0.157578,-0.117506
-0.167573,-0.177163
-0.175799,-0.2313
-0.17316,-0.172039
-0.168443,-0.116374
-0.173973,-0.155902
-0.180159,-0.198953
-0.177214,-0.148799
-0.172607,-0.0882386
-0.176873,-0.131432
-0.179256,-0.16624
-0.177073,-0.126718
-0.170294,-0.0755416
-0.169909,-0.0791933
-0.169295,-0.0779102
-0.167428,-0.0641464
-0.166979,-0.0434962
-0.166056,-0.0202751
-0.163307,0.0136922
-0.158751,0.0525065
-0.153391,0.0963796
-0.14852,0.128469
-0.144419,0.139429
-0.143734,0.114434
-0.141631,0.0937953
-0.135732,0.104328
-0.130711,0.122385
-0.1284,0.117983
-0.125045,0.108213
-0.121202,0.105276
-0.118062,0.10306
-0.11691,0.101595
-0.116218,0.0960885
-0.116909,0.0933681
-0.117312,0.0935038
-0.116624,0.0866564
-0.117609,0.0725107
-0.118569,0.0629683
-0.119239,0.0538362
-0.118986,0.0465797
-0.119957,0.0356345
-0.120708,0.0240744
-0.123164,0.00687569
-0.124201,-0.0133313
-0.126538,-0.034307
-0.129488,-0.0555132
-0.131723,-0.074705
-0.129477,-0.084494
-0.128743,-0.0818483
-0.130909,-0.0671655
-0.129693,-0.0535493
-0.132052,-0.043086
-0.132028,-0.0304878
-0.131235,-0.0218084
-0.130533,-0.00719984
-0.130451,0.00463581
-0.125733,0.0187734
-0.123134,0.0340472
-0.120285,0.0500291
-0.117158,0.0605001
-0.11652,0.0624011
-0.116418,0.0578226
-0.11485,0.0481395
-0.114407,0.0418762
-0.114349,0.0344253
-0.11533,0.0250524
-0.116493,0.0143291
-0.119068,0.00226605
-0.121621,-0.0127601
-0.127027,-0.0254847
-0.132532,-0.0358415
-0.13757,-0.0450874
-0.140159,-0.0497896
-0.141702,-0.0500282
-0.142121,-0.0438635
-0.142992,-0.0366421
-0.142096,-0.0249333
-0.138312,-0.0135092
-0.136247,-0.00317115
-0.133046,0.00786579
-0.128287,0.0174342
-0.124003,0.0286349
-0.120572,0.038561
-0.117608,0.0445505
-0.115013,0.0461794
-0.115374,0.0439362
-0.116952,0.0367634
-0.116692,0.0278413
-0.118722,0.0194789
-0.122052,0.0134024
-0.125177,0.00400507
-0.127853,-0.00360626
-0.132203,-0.0133837
-0.134576,-0.0228416
-0.134789,-0.0284049
-0.134803,-0.0324446
-0.136493,-0.0333534
-0.134217,-0.0307361
-0.132599,-0.0249165
-0.128576,-0.018661
-0.127513,-0.0103609
-0.122823,-0.00231331
-0.118461,0.00786354
-0.115966,0.0172549
-0.112132,0.024709
-0.110314,0.0311456
-0.109223,0.0340419
-0.109292,0.0356051
-0.109713,0.0349723
-0.10979,0.0288303
-0.109623,0.0223031
-0.112145,0.0149452
-0.113711,0.00571743
-0.114079,-0.000139671
-0.11697,-0.00643672
-0.12034,-0.0142038
-0.120342,-0.0179507
-0.119614,-0.0221147
-0.118163,-0.0242112
-0.11697,-0.0219151
-0.116687,-0.0167366
-0.113976,-0.0115412
-0.111507,-0.00459076
-0.109235,9.62735e-05
-0.108169,0.00664083
-0.10691,0.0139661
-0.105745,0.018439
-0.104453,0.0224567
-0.103881,0.0242432
-0.106223,0.0238716
-0.108011,0.0197995
-0.109082,0.0165173
-0.111203,0.0116337
-0.11243,0.00689794
-0.115108,0.00128779
-0.117317,-0.00278278
-0.118635,-0.00679641
-0.11894,-0.00981696
-0.120369,-0.0121774
-0.120723,-0.0136667
-0.122903,-0.0129814
-0.123368,-0.010446
-0.12335,-0.00738394
-0.121907,-0.00233128
-0.121619,0.00249079
-0.118469,0.00840937
-0.115691,0.012818
-0.115227,0.0138961
-0.115352,0.0173374
-0.115236,0.0183691
-0.115761,0.0179995
-0.115668,0.0170884
-0.11491,0.0132789
-0.117505,0.00676659
-0.118787,0.00232543
-0.120898,-0.00136814
-0.120779,-0.00531019
-0.119715,-0.00808545
-0.12013,-0.0089279
-0.120674,-0.00962809
-0.121606,-0.00981099
-0.123188,-0.00779001
-0.119884,-0.00666781
-0.118622,-0.00325539
-0.116264,-0.0018907
-0.115043,0.000622047
-0.114563,0.00250654
-0.112758,0.00573108
-0.1108,0.00704004
-0.109571,0.00832759
-0.107025,0.00903301
-0.106996,0.00807101
-0.107667,0.00735824
-0.106027,0.00558791
-0.106958,0.00275897
-0.108297,0.00137368
-0.108836,0.00020225
-0.110053,-0.000926779
-0.109967,-0.00273961
-0.110249,-0.00467677
-0.111883,-0.00457757
-0.11044,-0.0034692
-0.111984,-0.00353579
-0.111244,-0.00114841
-0.111359,-0.000125607
-0.111443,0.00100098
-0.11047,0.00360815
-0.109968,0.0062286
-0.10887,0.00638101
-0.108787,0.00942705
-0.106817,0.0100555
-0.106514,0.00743828
-0.10646,0.00586334
-0.106963,0.00478013
-0.105136,0.0037535
-0.105057,0.00323738
-0.106357,0.000876333
-0.105706,-0.00027438
-0.107024,-0.000841824
-0.106875,0.000692417
-0.108642,-0.000418708
-0.109782,0.000389743
-0.110944,-0.000385847
-0.110038,0.00141509
-0.110631,0.0034648
-0.109961,0.0060437
-0.109027,0.00753774
-0.107172,0.00882032
-0.106224,0.00868353
-0.10611,0.00738643
-0.103771,0.00874934
-0.102838,0.00848099
-0.103234,0.0084255
-0.104939,0.006741
-0.106245,0.00500234
-0.102993,0.0173924
-0.09442,0.0690927
-0.072409,0.175259
-0.0403031,0.335943
-0.00822674,0.404557
0.0161732,0.422585
0.0457345,0.507136
0.087229,0.624284
0.121554,0.688634
0.156821,0.743087
0.18232,0.717192
0.196373,0.599391
0.213045,0.551482
0.225387,0.462282
0.228908,0.372655
0.231014,0.314
0.228949,0.2646
0.219367,0.155542
0.21121,0.0697289
0.201661,0.00426028
0.182567,-0.0674589
0.147133,-0.208556
0.116901,-0.360208
0.0908931,-0.416499
0.0785032,-0.387567
0.0590994,-0.4256
0.0337606,-0.535379
0.0134891,-0.633487
0.00686083,-0.629653
-0.00782186,-0.669538
-0.0235037,-0.706109
-0.0373717,-0.728488
-0.0518181,-0.764536
-0.0578486,-0.76348
-0.0620359,-0.753198
-0.0686353,-0.747283
-0.0734836,-0.706236
-0.0804936,-0.7008
-0.0891547,-0.647883
-0.100512,-0.615939
-0.109831,-0.586195
-0.118094,-0.497206
-0.125726,-0.457426
-0.130711,-0.391366
-0.12983,-0.302964
-0.126563,-0.196253
-0.129045,-0.14834
-0.12697,-0.0919094
-0.12687,-0.0487534
-0.123476,0.0353972
-0.111354,0.159971
-0.0913586,0.332776
-0.0762596,0.386222
-0.0575668,0.384942
-0.0431025,0.381686
-0.0208272,0.439442
0.00510448,0.523401
0.0333199,0.62563
0.0485882,0.64096
0.0612843,0.614675
0.0799821,0.648465
0.100361,0.671376
0.116656,0.676382
0.130322,0.700022
0.138076,0.679523
0.145565,0.633988
0.152758,0.643828
0.157829,0.606363
0.156928,0.570142
0.155795,0.532468
0.149021,0.458487
0.148071,0.38004
0.154871,0.36439
0.156086,0.304612
0.151148,0.217483
0.143907,0.109136
0.143409,0.0718744
0.144915,0.058187
0.141176,-0.00480233
0.128259,-0.116168
0.114732,-0.256941
0.101881,-0.401448
0.0981539,-0.356632
0.0913579,-0.313191
0.0761108,-0.363786
0.0580524,-0.476017
0.04452,-0.54
0.0333905,-0.567192
0.0233314,-0.542427
0.00434024,-0.570071
-0.0167483,-0.607905
-0.030529,-0.612261
-0.040069,-0.605909
-0.0511716,-0.615933
-0.0605507,-0.573981
-0.0704624,-0.550118
-0.0815758,-0.555364
-0.0884599,-0.506731
-0.0921232,-0.459819
-0.0970439,-0.425469
-0.0971699,-0.376477
-0.0913947,-0.291599
-0.0876551,-0.24749
